{"learner":{"attributes":{"best_iteration":"1","best_score":"0.9999279711156002","scikit_learn":"{\"_estimator_type\": \"classifier\"}"},"feature_names":["chest_pain","shortness_of_breath","irregular_heartbeat","fatigue_and_weakness","dizziness","swelling_edema","pain_in_neck_jaw_shoulder_back","excessive_sweating","persistent_cough","nausea_vomiting","high_blood_pressure","chest_discomfort_activity","cold_hands_feet","snoring_sleep_apnea","anxiety_feeling_of_doom","age","stroke_risk_percentage_ds1","hypertension","heart_disease","ever_married","avg_glucose_level","bmi","num_symptoms_ds1","bmi_x_age","glucose_x_hypertension","is_smoker","smoking_and_hypertension","bmi_high_and_smoking","bmi_category_Underweight","bmi_category_Normal","bmi_category_Overweight","bmi_category_Obese_Class1","bmi_category_Obese_Class2","bmi_category_Obese_Class3","gender_Female","gender_Male","gender_Unknown_DS1_Origin","Residence_type_Rural","Residence_type_Unknown_DS1_Origin","Residence_type_Urban","glucose_category_Normal_Glucose","glucose_category_Prediabetes_Glucose","glucose_category_Diabetes_Glucose","smoking_status_Unknown","smoking_status_Unknown_DS1_Origin","smoking_status_formerly smoked","smoking_status_never smoked","smoking_status_smokes","work_type_Govt_job","work_type_Private","work_type_Self-employed","work_type_Unknown_DS1_Origin","work_type_children","age_group_0-18","age_group_19-35","age_group_36-50","age_group_51-65","age_group_65+"],"feature_types":["float","float","float","float","float","float","float","float","float","float","float","float","float","float","float","float","float","float","float","float","float","float","float","float","float","float","float","float","float","float","float","float","float","float","float","float","float","float","float","float","float","float","float","float","float","float","float","float","float","float","float","float","float","float","float","float","float","float"],"gradient_booster":{"model":{"gbtree_model_param":{"num_parallel_tree":"1","num_trees":"52"},"iteration_indptr":[0,1,2,3,4,5,6,7,8,9,10,11,12,13,14,15,16,17,18,19,20,21,22,23,24,25,26,27,28,29,30,31,32,33,34,35,36,37,38,39,40,41,42,43,44,45,46,47,48,49,50,51,52],"tree_info":[0,0,0,0,0,0,0,0,0,0,0,0,0,0,0,0,0,0,0,0,0,0,0,0,0,0,0,0,0,0,0,0,0,0,0,0,0,0,0,0,0,0,0,0,0,0,0,0,0,0,0,0],"trees":[{"base_weights":[5.7882783E-3,-9.9970475E-2,1.4568716E0,-1.8540461E0,9.9977545E-2,-1.9320487E0,-1.4445013E0,-9.719924E-2,-1.3715539E0,-7.338145E-2,2.6875172E-2,-7.703035E-2,1.3092132E-2],"categories":[],"categories_nodes":[],"categories_segments":[],"categories_sizes":[],"default_left":[0,0,0,0,0,0,0,0,0,0,0,0,0],"id":0,"left_children":[1,-1,3,5,-1,7,9,-1,11,-1,-1,-1,-1],"loss_changes":[2.456178E4,0E0,8.803044E3,1.925708E1,0E0,1.192627E0,6.032135E0,0E0,4.6621704E0,0E0,0E0,0E0,0E0],"parents":[2147483647,0,0,2,2,3,3,5,5,6,6,8,8],"right_children":[2,-1,4,6,-1,8,10,-1,12,-1,-1,-1,-1],"split_conditions":[-4.022955E-1,-9.9970475E-2,-2.2675757E0,6.8632954E-1,9.9977545E-2,1E0,2.1037092E1,-9.719924E-2,1.2106298E0,-7.338145E-2,2.6875172E-2,-7.703035E-2,1.3092132E-2],"split_indices":[16,0,22,15,0,18,24,0,23,0,0,0,0],"split_type":[0,0,0,0,0,0,0,0,0,0,0,0,0],"sum_hessian":[8.439316E3,3.543E3,4.896317E3,6.891791E2,4.2071377E3,5.7579474E2,1.13384346E2,5.6137164E2,1.4423043E1,1.1233308E2,1.051268E0,1.3121776E1,1.301268E0],"tree_param":{"num_deleted":"0","num_feature":"58","num_nodes":"13","size_leaf_vector":"1"}},{"base_weights":[-6.509764E-3,-9.521533E-2,1.3826437E0,-1.7665423E0,9.52213E-2,-9.383247E-2,-1.5183605E0,-1.5314649E0,-1.6277252E-1,-8.052618E-2,-6.755822E-2,2.6826216E-2,-3.7585843E-2],"categories":[],"categories_nodes":[],"categories_segments":[],"categories_sizes":[],"default_left":[0,0,0,0,0,0,0,0,0,0,0,0,0],"id":1,"left_children":[1,-1,3,5,-1,-1,7,9,11,-1,-1,-1,-1],"loss_changes":[2.2259088E4,0E0,8.0137227E3,1.6099365E1,0E0,0E0,3.6293335E0,9.0460205E-1,1.7250884E0,0E0,0E0,0E0,0E0],"parents":[2147483647,0,0,2,2,3,3,6,6,7,7,8,8],"right_children":[2,-1,4,6,-1,-1,8,10,12,-1,-1,-1,-1],"split_conditions":[-4.022955E-1,-9.521533E-2,-2.2675757E0,1.7100242E-1,9.52213E-2,-9.383247E-2,2.1037092E1,9.6741706E-1,2.2049103E1,-8.052618E-2,-6.755822E-2,2.6826216E-2,-3.7585843E-2],"split_indices":[16,0,22,15,0,0,24,15,24,0,0,0,0],"split_type":[0,0,0,0,0,0,0,0,0,0,0,0,0],"sum_hessian":[8.441209E3,3.5673247E3,4.873884E3,6.9242267E2,4.1814614E3,4.750867E2,2.17336E2,2.1512662E2,2.209382E0,1.4403671E2,7.108992E1,1.0507529E0,1.1586292E0],"tree_param":{"num_deleted":"0","num_feature":"58","num_nodes":"13","size_leaf_vector":"1"}},{"base_weights":[1.0989328E-3,-1.0564877E0,9.7356474E-1,-1.6159813E0,9.592895E-1,-9.170079E-1,1.5985694E0,-9.101625E-2,-9.265006E-1,-3.7484205E-1,9.096239E-2,-1.7703075E0,2.2181238E-1,6.7224187E-1,9.110003E-2,-9.09649E-2,9.0619855E-2,-9.069177E-2,9.046572E-2,-8.901306E-2,-1.1019882E0,-9.0635145E-1,9.066221E-2,-9.068093E-2,9.092588E-2,-7.582667E-2,-1.6112246E-2,-6.560352E-2,4.414997E-2],"categories":[],"categories_nodes":[],"categories_segments":[],"categories_sizes":[],"default_left":[0,0,0,0,0,0,0,0,0,0,0,0,0,0,0,0,0,0,0,0,0,0,0,0,0,0,0,0,0],"id":2,"left_children":[1,3,5,7,9,11,13,-1,15,17,-1,19,21,23,-1,-1,-1,-1,-1,-1,25,27,-1,-1,-1,-1,-1,-1,-1],"loss_changes":[8.590252E3,4.514084E3,5.143096E3,4.396172E2,9.987138E2,1.0515837E3,6.7569336E2,0E0,1.7592979E3,1.0774907E3,0E0,2.152588E0,8.3513916E2,1.8188668E3,0E0,0E0,0E0,0E0,0E0,0E0,3.2936258E0,1.9886098E2,0E0,0E0,0E0,0E0,0E0,0E0,0E0],"parents":[2147483647,0,0,1,1,2,2,3,3,4,4,5,5,6,6,8,8,9,9,11,11,12,12,13,13,20,20,21,21],"right_children":[2,4,6,8,10,12,14,-1,16,18,-1,20,22,24,-1,-1,-1,-1,-1,-1,26,28,-1,-1,-1,-1,-1,-1,-1],"split_conditions":[-2.5062886E-1,7.5207305E-1,-3.802953E-1,3.7461692E-1,-1.1875873E0,6.8632954E-1,-2.8391893E-3,-9.101625E-2,-7.1910805E-1,1.1295291E0,9.096239E-2,1E0,-7.577514E-1,2.1785034E-1,9.110003E-2,-9.09649E-2,9.0619855E-2,-9.069177E-2,9.046572E-2,-8.901306E-2,1.4316818E0,1.3890483E0,9.066221E-2,-9.068093E-2,9.092588E-2,-7.582667E-2,-1.6112246E-2,-6.560352E-2,4.414997E-2],"split_indices":[15,22,22,22,15,15,22,0,15,22,0,18,22,15,0,0,0,0,0,0,20,15,0,0,0,0,0,0,0],"split_type":[0,0,0,0,0,0,0,0,0,0,0,0,0,0,0,0,0,0,0,0,0,0,0,0,0,0,0,0,0],"sum_hessian":[8.350482E3,4.0001304E3,4.3503516E3,3.1312322E3,8.688981E2,1.0807451E3,3.2696064E3,2.414114E3,7.171182E2,3.4077966E2,5.281184E2,6.175045E2,4.6324066E2,6.3615765E2,2.633449E3,5.410788E2,1.7603947E2,2.0553564E2,1.3524403E2,6.068032E2,1.0701321E1,2.7132745E2,1.9191318E2,2.0058298E2,4.3557468E2,6.369897E0,4.331424E0,2.2139494E2,4.993252E1],"tree_param":{"num_deleted":"0","num_feature":"58","num_nodes":"29","size_leaf_vector":"1"}},{"base_weights":[1.4049255E-3,-8.75822E-2,1.2726362E0,-1.6198968E0,8.757723E-2,-1.6904945E0,-1.2750047E0,-8.6121835E-2,-7.566072E-2,-1.2933587E0,3.7894712E-3,-6.8969145E-2,-5.1249146E-2],"categories":[],"categories_nodes":[],"categories_segments":[],"categories_sizes":[],"default_left":[0,0,0,0,0,0,0,0,0,0,0,0,0],"id":3,"left_children":[1,-1,3,5,-1,7,9,-1,-1,11,-1,-1,-1],"loss_changes":[1.8403873E4,0E0,6.634054E3,1.4413818E1,0E0,5.748291E-1,3.0655975E0,0E0,0E0,1.3138123E0,0E0,0E0,0E0],"parents":[2147483647,0,0,2,2,3,3,5,5,6,6,9,9],"right_children":[2,-1,4,6,-1,8,10,-1,-1,12,-1,-1,-1],"split_conditions":[-4.022955E-1,-8.75822E-2,-2.2675757E0,6.394816E-1,8.757723E-2,1.7100242E-1,2.1037092E1,-8.6121835E-2,-7.566072E-2,5.6681137E0,3.7894712E-3,-6.8969145E-2,-5.1249146E-2],"split_indices":[16,0,22,15,0,15,24,0,0,20,0,0,0],"split_type":[0,0,0,0,0,0,0,0,0,0,0,0,0],"sum_hessian":[8.256299E3,3.4703083E3,4.78599E3,6.795045E2,4.106486E3,5.6080817E2,1.186964E2,4.6780402E2,9.3004135E1,1.1714718E2,1.5492187E0,8.557693E1,3.1570251E1],"tree_param":{"num_deleted":"0","num_feature":"58","num_nodes":"13","size_leaf_vector":"1"}},{"base_weights":[-6.5424372E-3,-8.4431455E-2,1.2243185E0,-1.5663911E0,8.4425785E-2,-1.6275754E0,-1.2404176E0,-8.292286E-2,-1.46946E0,-1.2612168E0,1.4250504E-2,-7.5658076E-2,-4.1742723E-2,-6.473305E-2,-3.8788047E-2],"categories":[],"categories_nodes":[],"categories_segments":[],"categories_sizes":[],"default_left":[0,0,0,0,0,0,0,0,0,0,0,0,0,0,0],"id":4,"left_children":[1,-1,3,5,-1,7,9,-1,11,13,-1,-1,-1,-1,-1],"loss_changes":[1.6877066E4,0E0,6.1004385E3,1.1380127E1,0E0,3.0932617E-1,3.8613892E0,0E0,1.5288239E0,7.665558E-1,0E0,0E0,0E0,0E0,0E0],"parents":[2147483647,0,0,2,2,3,3,5,5,6,6,8,8,9,9],"right_children":[2,-1,4,6,-1,8,10,-1,12,14,-1,-1,-1,-1,-1],"split_conditions":[-4.022955E-1,-8.4431455E-2,1E0,6.8632954E-1,8.4425785E-2,1.7100242E-1,2.1037092E1,-8.292286E-2,1E0,1.4308229E1,1.4250504E-2,-7.5658076E-2,-4.1742723E-2,-6.473305E-2,-3.8788047E-2],"split_indices":[16,0,36,15,0,15,24,0,18,24,0,0,0,0,0],"split_type":[0,0,0,0,0,0,0,0,0,0,0,0,0,0,0],"sum_hessian":[8.1495415E3,3.4434175E3,4.706124E3,6.708232E2,4.0353008E3,5.614481E2,1.0937511E2,4.6177014E2,9.9677956E1,1.08074715E2,1.3003893E0,9.196078E1,7.717181E0,9.954959E1,8.525123E0],"tree_param":{"num_deleted":"0","num_feature":"58","num_nodes":"15","size_leaf_vector":"1"}},{"base_weights":[-1.2596654E-3,-8.164311E-2,1.1837189E0,-1.4999757E0,8.16367E-2,-1.5676816E0,-1.1626656E0,-8.069062E-2,-1.4302074E0,-1.2621026E0,-8.368217E-1,-7.286916E-2,-4.634745E-2,-6.507148E-2,-3.6242526E-2,-4.620352E-2,3.402373E-2],"categories":[],"categories_nodes":[],"categories_segments":[],"categories_sizes":[],"default_left":[0,0,0,0,0,0,0,0,0,0,0,0,0,0,0,0,0],"id":5,"left_children":[1,-1,3,5,-1,7,9,-1,11,13,15,-1,-1,-1,-1,-1,-1],"loss_changes":[1.5539808E4,0E0,5.6130186E3,1.3430054E1,0E0,1.2010498E0,2.6867218E0,0E0,6.7071533E-1,8.8513184E-1,4.5972786E0,0E0,0E0,0E0,0E0,0E0,0E0],"parents":[2147483647,0,0,2,2,3,3,5,5,6,6,8,8,9,9,10,10],"right_children":[2,-1,4,6,-1,8,10,-1,12,14,16,-1,-1,-1,-1,-1,-1],"split_conditions":[-4.022955E-1,-8.164311E-2,-2.2675757E0,6.8632954E-1,8.16367E-2,1E0,1E0,-8.069062E-2,1E0,1.0313273E1,1.189627E1,-7.286916E-2,-4.634745E-2,-6.507148E-2,-3.6242526E-2,-4.620352E-2,3.402373E-2],"split_indices":[16,0,22,15,0,56,17,0,18,20,20,0,0,0,0,0,0],"split_type":[0,0,0,0,0,0,0,0,0,0,0,0,0,0,0,0,0],"sum_hessian":[8.0354966E3,3.3804968E3,4.6549995E3,6.668712E2,3.9881284E3,5.5235364E2,1.1451759E2,4.055335E2,1.4682014E2,8.554019E1,2.8977404E1,1.3749933E2,9.3208065E0,7.8380356E1,7.1598287E0,2.7771444E1,1.2059591E0],"tree_param":{"num_deleted":"0","num_feature":"58","num_nodes":"17","size_leaf_vector":"1"}},{"base_weights":[-4.6187807E-3,-7.915801E-2,1.1409749E0,-1.4570761E0,7.91569E-2,-1.5217108E0,-1.1300534E0,-7.78363E-2,-6.7676984E-2,-6.235928E-1,-5.842207E-2,-5.308645E-2,3.513939E-2],"categories":[],"categories_nodes":[],"categories_segments":[],"categories_sizes":[],"default_left":[0,0,0,0,0,0,0,0,0,0,0,0,0],"id":6,"left_children":[1,-1,3,5,-1,7,9,-1,-1,11,-1,-1,-1],"loss_changes":[1.4226237E4,0E0,5.239048E3,1.2305054E1,0E0,1.1380615E0,1.4757843E0,0E0,0E0,6.6348968E0,0E0,0E0,0E0],"parents":[2147483647,0,0,2,2,3,3,5,5,6,6,9,9],"right_children":[2,-1,4,6,-1,8,10,-1,-1,12,-1,-1,-1],"split_conditions":[-4.022955E-1,-7.915801E-2,-2.2675757E0,6.8632954E-1,7.91569E-2,1.7100242E-1,1E0,-7.78363E-2,-6.7676984E-2,6.227967E0,-5.842207E-2,-5.308645E-2,3.513939E-2],"split_indices":[16,0,22,15,0,15,19,0,0,24,0,0,0],"split_type":[0,0,0,0,0,0,0,0,0,0,0,0,0],"sum_hessian":[7.864898E3,3.3073027E3,4.557595E3,6.625143E2,3.8950808E3,5.501301E2,1.12384155E2,4.484922E2,1.01637924E2,9.133143E0,1.0325101E2,7.015335E0,2.1178086E0],"tree_param":{"num_deleted":"0","num_feature":"58","num_nodes":"13","size_leaf_vector":"1"}},{"base_weights":[-6.6072E-4,-7.6940574E-2,1.1150646E0,-1.4100034E0,7.693526E-2,-1.4753551E0,-1.0889533E0,-7.5422734E-2,-1.3154603E0,-1.1077303E0,1.4539207E-2,-5.9891183E-2,-7.4087195E-2,-5.8520652E-2,-4.3113828E-2],"categories":[],"categories_nodes":[],"categories_segments":[],"categories_sizes":[],"default_left":[0,0,0,0,0,0,0,0,0,0,0,0,0,0,0],"id":7,"left_children":[1,-1,3,5,-1,7,9,-1,11,13,-1,-1,-1,-1,-1],"loss_changes":[1.3210677E4,0E0,4.7748003E3,1.1853149E1,0E0,8.2177734E-1,3.2319489E0,0E0,1.5672302E-1,6.9885254E-1,0E0,0E0,0E0,0E0,0E0],"parents":[2147483647,0,0,2,2,3,3,5,5,6,6,8,8,9,9],"right_children":[2,-1,4,6,-1,8,10,-1,12,14,-1,-1,-1,-1,-1],"split_conditions":[-4.022955E-1,-7.6940574E-2,-2.2675757E0,6.8632954E-1,7.693526E-2,1.7100242E-1,2.1037092E1,-7.5422734E-2,1E0,5.550069E0,1.4539207E-2,-5.9891183E-2,-7.4087195E-2,-5.8520652E-2,-4.3113828E-2],"split_indices":[16,0,22,15,0,15,24,0,46,24,0,0,0,0,0],"split_type":[0,0,0,0,0,0,0,0,0,0,0,0,0,0,0],"sum_hessian":[7.6958394E3,3.2352751E3,4.460564E3,6.405142E2,3.8200498E3,5.291973E2,1.1131684E2,4.3144977E2,9.774759E1,1.10016754E2,1.3000867E0,6.2052334E1,3.569526E1,8.463479E1,2.5381966E1],"tree_param":{"num_deleted":"0","num_feature":"58","num_nodes":"15","size_leaf_vector":"1"}},{"base_weights":[-3.465671E-3,-8.6975074E-1,7.91527E-1,-1.3309157E0,7.672482E-1,-7.531303E-1,1.316096E0,-7.481968E-2,-7.613629E-1,-3.4328768E-1,7.477493E-2,-1.448923E0,1.8816902E-1,5.6613183E-1,7.489677E-2,-7.477345E-2,7.446027E-2,-7.454913E-2,7.432654E-2,-1.45885E0,-8.1478137E-1,-7.206013E-1,7.4508734E-2,-7.451699E-2,7.4742794E-2,-7.324913E-2,-4.245333E-2,-5.1608652E-2,2.470447E-2,-5.2477952E-2,3.789356E-2],"categories":[],"categories_nodes":[],"categories_segments":[],"categories_sizes":[],"default_left":[0,0,0,0,0,0,0,0,0,0,0,0,0,0,0,0,0,0,0,0,0,0,0,0,0,0,0,0,0,0,0],"id":8,"left_children":[1,3,5,7,9,11,13,-1,15,17,-1,19,21,23,-1,-1,-1,-1,-1,25,27,29,-1,-1,-1,-1,-1,-1,-1,-1,-1],"loss_changes":[5.1626753E3,2.7091929E3,3.1684019E3,2.626831E2,6.3870483E2,6.497298E2,3.971455E2,0E0,1.0467631E3,6.6025336E2,0E0,2.401245E0,5.0079504E2,1.093028E3,0E0,0E0,0E0,0E0,0E0,8.510742E-1,3.6554842E0,1.2209453E2,0E0,0E0,0E0,0E0,0E0,0E0,0E0,0E0,0E0],"parents":[2147483647,0,0,1,1,2,2,3,3,4,4,5,5,6,6,8,8,9,9,11,11,12,12,13,13,19,19,20,20,21,21],"right_children":[2,4,6,8,10,12,14,-1,16,18,-1,20,22,24,-1,-1,-1,-1,-1,26,28,30,-1,-1,-1,-1,-1,-1,-1,-1,-1],"split_conditions":[-2.5062886E-1,7.5207305E-1,-3.802953E-1,3.7461692E-1,-1.1875873E0,6.8632954E-1,-2.8391893E-3,-7.481968E-2,-7.1910805E-1,1.1295291E0,7.477493E-2,1E0,-7.577514E-1,2.1785034E-1,7.489677E-2,-7.477345E-2,7.446027E-2,-7.454913E-2,7.432654E-2,1.4414618E1,1.2106298E0,1.3890483E0,7.4508734E-2,-7.451699E-2,7.4742794E-2,-7.324913E-2,-4.245333E-2,-5.1608652E-2,2.470447E-2,-5.2477952E-2,3.789356E-2],"split_indices":[15,22,22,22,15,15,22,0,15,22,0,18,22,15,0,0,0,0,0,24,23,15,0,0,0,0,0,0,0,0,0],"split_type":[0,0,0,0,0,0,0,0,0,0,0,0,0,0,0,0,0,0,0,0,0,0,0,0,0,0,0,0,0,0,0],"sum_hessian":[7.4943677E3,3.5863315E3,3.9080361E3,2.7982212E3,7.881102E2,9.906146E2,2.9174216E3,2.1669954E3,6.3122595E2,3.1234E2,4.757702E2,5.6927606E2,4.213386E2,5.70131E2,2.3472905E3,4.7622354E2,1.5500243E2,1.9206105E2,1.2027895E2,5.592213E2,1.0054774E1,2.4840446E2,1.7293413E2,1.771853E2,3.929457E2,5.522647E2,6.9565744E0,8.803924E0,1.2508508E0,2.0343141E2,4.497305E1],"tree_param":{"num_deleted":"0","num_feature":"58","num_nodes":"31","size_leaf_vector":"1"}},{"base_weights":[-3.1437492E-3,-7.317555E-2,1.0585938E0,-1.3353426E0,7.316426E-2,-1.4050107E0,-9.858551E-1,-7.247426E-2,-1.2926548E0,-1.0692713E0,-7.736678E-1,-6.5875046E-2,-4.262667E-2,-3.0823935E-2,-5.527581E-2,-2.7799675E-2,-5.4982673E-2],"categories":[],"categories_nodes":[],"categories_segments":[],"categories_sizes":[],"default_left":[0,0,0,0,0,0,0,0,0,0,0,0,0,0,0,0,0],"id":9,"left_children":[1,-1,3,5,-1,7,9,-1,11,13,15,-1,-1,-1,-1,-1,-1],"loss_changes":[1.1337455E4,0E0,4.1037305E3,1.3534302E1,0E0,6.6748047E-1,1.034729E0,0E0,5.549011E-1,5.1477814E-1,1.7517376E0,0E0,0E0,0E0,0E0,0E0,0E0],"parents":[2147483647,0,0,2,2,3,3,5,5,6,6,8,8,9,9,10,10],"right_children":[2,-1,4,6,-1,8,10,-1,12,14,16,-1,-1,-1,-1,-1,-1],"split_conditions":[-4.022955E-1,-7.317555E-2,-2.2675757E0,6.8632954E-1,7.316426E-2,-1.1008509E-1,1E0,-7.247426E-2,1E0,1E0,1E0,-6.5875046E-2,-4.262667E-2,-3.0823935E-2,-5.527581E-2,-2.7799675E-2,-5.4982673E-2],"split_indices":[16,0,22,15,0,15,42,0,18,19,50,0,0,0,0,0,0],"split_type":[0,0,0,0,0,0,0,0,0,0,0,0,0,0,0,0,0],"sum_hessian":[7.3100024E3,3.077153E3,4.2328496E3,6.117523E2,3.6210972E3,5.0755444E2,1.0419786E2,3.5509473E2,1.5245973E2,7.189488E1,3.230298E1,1.4242587E2,1.0033865E1,6.663188E0,6.52317E1,2.099159E1,1.1311389E1],"tree_param":{"num_deleted":"0","num_feature":"58","num_nodes":"17","size_leaf_vector":"1"}},{"base_weights":[8.4685005E-4,-7.153718E-2,1.0381398E0,-1.295994E0,7.15309E-2,-1.3979163E0,-1.0819033E0,-7.0118584E-2,-5.591288E-1,-1.0918167E0,4.2968086E-4,-4.08483E-2,-4.8750597E-3,-5.8729626E-2,-4.768507E-2],"categories":[],"categories_nodes":[],"categories_segments":[],"categories_sizes":[],"default_left":[0,0,0,0,0,0,0,0,0,0,0,0,0,0,0],"id":10,"left_children":[1,-1,3,5,-1,7,9,-1,11,13,-1,-1,-1,-1,-1],"loss_changes":[1.057513E4,0E0,3.7847544E3,1.1469177E1,0E0,7.092285E-1,2.131485E0,0E0,3.695978E-1,1.1038971E0,0E0,0E0,0E0,0E0,0E0],"parents":[2147483647,0,0,2,2,3,3,5,5,6,6,8,8,9,9],"right_children":[2,-1,4,6,-1,8,10,-1,12,14,-1,-1,-1,-1,-1],"split_conditions":[-4.022955E-1,-7.153718E-2,-2.2675757E0,1.7100242E-1,7.15309E-2,1.4414618E1,2.1037092E1,-7.0118584E-2,1E0,9.6609455E-1,4.2968086E-4,-4.08483E-2,-4.8750597E-3,-5.8729626E-2,-4.768507E-2],"split_indices":[16,0,22,15,0,24,24,0,34,20,0,0,0,0,0],"split_type":[0,0,0,0,0,0,0,0,0,0,0,0,0,0,0],"sum_hessian":[7.119401E3,2.9910327E3,4.128368E3,5.9392053E2,3.5344478E3,3.986197E2,1.9530081E2,3.9584525E2,2.7744498E0,1.9354019E2,1.7606176E0,1.2862675E0,1.4881823E0,1.1632143E2,7.7218765E1],"tree_param":{"num_deleted":"0","num_feature":"58","num_nodes":"15","size_leaf_vector":"1"}},{"base_weights":[2.844371E-4,-7.00477E-2,1.0121964E0,-1.262046E0,7.004278E-2,-1.3383987E0,-9.137595E-1,-6.872382E-2,-1.1569588E0,-9.996864E-1,-6.9721687E-1,-6.0206946E-2,-2.7077168E-2,-2.299219E-2,-5.1911842E-2,5.898989E-3,-3.6892865E-2],"categories":[],"categories_nodes":[],"categories_segments":[],"categories_sizes":[],"default_left":[0,0,0,0,0,0,0,0,0,0,0,0,0,0,0,0,0],"id":11,"left_children":[1,-1,3,5,-1,7,9,-1,11,13,15,-1,-1,-1,-1,-1,-1],"loss_changes":[9.8072295E3,0E0,3.5517397E3,1.437915E1,0E0,1.5457153E0,1.3245468E0,0E0,1.8384628E0,1.0933151E0,1.2190914E0,0E0,0E0,0E0,0E0,0E0,0E0],"parents":[2147483647,0,0,2,2,3,3,5,5,6,6,8,8,9,9,10,10],"right_children":[2,-1,4,6,-1,8,10,-1,12,14,16,-1,-1,-1,-1,-1,-1],"split_conditions":[-4.022955E-1,-7.00477E-2,-2.2675757E0,6.394816E-1,7.004278E-2,1.7100242E-1,3.0097342E0,-6.872382E-2,1E0,1E0,4.2317977E0,-6.0206946E-2,-2.7077168E-2,-2.299219E-2,-5.1911842E-2,5.898989E-3,-3.6892865E-2],"split_indices":[16,0,22,15,0,15,20,0,18,19,20,0,0,0,0,0,0],"split_type":[0,0,0,0,0,0,0,0,0,0,0,0,0,0,0,0,0],"sum_hessian":[6.914583E3,2.8993472E3,4.015236E3,5.857088E2,3.4295273E3,4.7806314E2,1.0764562E2,3.9328647E2,8.477669E1,7.4476E1,3.3169624E1,7.785167E1,6.9250236E0,5.825578E0,6.865042E1,1.4847319E0,3.168489E1],"tree_param":{"num_deleted":"0","num_feature":"58","num_nodes":"17","size_leaf_vector":"1"}},{"base_weights":[3.3624223E-3,-6.868935E-2,9.9257314E-1,-1.2381717E0,6.868473E-2,-1.3116425E0,-8.9014494E-1,-6.732294E-2,-1.142439E0,-9.094823E-1,1.762445E-2,-5.046749E-2,-6.754272E-2,-4.8819706E-2,-3.3438966E-2],"categories":[],"categories_nodes":[],"categories_segments":[],"categories_sizes":[],"default_left":[0,0,0,0,0,0,0,0,0,0,0,0,0,0,0],"id":12,"left_children":[1,-1,3,5,-1,7,9,-1,11,13,-1,-1,-1,-1,-1],"loss_changes":[9.146621E3,0E0,3.3237344E3,1.3425049E1,0E0,1.2252808E0,2.7857132E0,0E0,1.0400772E0,9.784775E-1,0E0,0E0,0E0,0E0,0E0],"parents":[2147483647,0,0,2,2,3,3,5,5,6,6,8,8,9,9],"right_children":[2,-1,4,6,-1,8,10,-1,12,14,-1,-1,-1,-1,-1],"split_conditions":[-4.022955E-1,-6.868935E-2,-2.2675757E0,6.8632954E-1,6.868473E-2,1.7100242E-1,2.1037092E1,-6.732294E-2,1E0,5.4806085E0,1.762445E-2,-5.046749E-2,-6.754272E-2,-4.8819706E-2,-3.3438966E-2],"split_indices":[16,0,22,15,0,15,24,0,46,24,0,0,0,0,0],"split_type":[0,0,0,0,0,0,0,0,0,0,0,0,0,0,0],"sum_hessian":[6.7121455E3,2.805719E3,3.9064263E3,5.696944E2,3.336732E3,4.681053E2,1.0158911E2,3.824522E2,8.565308E1,1.0029645E2,1.2926702E0,5.5838726E1,2.9814358E1,7.608854E1,2.4207907E1],"tree_param":{"num_deleted":"0","num_feature":"58","num_nodes":"15","size_leaf_vector":"1"}},{"base_weights":[1.1127209E-3,-6.7447744E-2,9.7076696E-1,-1.2022798E0,6.744398E-2,-1.323283E0,-9.4581056E-1,-6.6394776E-2,-5.588578E-1,-1.0630298E0,-7.5883263E-1,6.3865962E-3,-4.4710323E-2,-5.619539E-2,-3.4230035E-2,-4.231543E-2,-1.6891427E-2],"categories":[],"categories_nodes":[],"categories_segments":[],"categories_sizes":[],"default_left":[0,0,0,0,0,0,0,0,0,0,0,0,0,0,0,0,0],"id":13,"left_children":[1,-1,3,5,-1,7,9,-1,11,13,15,-1,-1,-1,-1,-1,-1],"loss_changes":[8.510518E3,0E0,3.1104258E3,1.6167664E1,0E0,5.9381104E-1,3.2138062E0,0E0,1.0349904E0,1.770668E0,2.44598E0,0E0,0E0,0E0,0E0,0E0,0E0],"parents":[2147483647,0,0,2,2,3,3,5,5,6,6,8,8,9,9,10,10],"right_children":[2,-1,4,6,-1,8,10,-1,12,14,16,-1,-1,-1,-1,-1,-1],"split_conditions":[-4.022955E-1,-6.7447744E-2,1E0,1.7100242E-1,6.744398E-2,1.4414618E1,9.04291E-1,-6.6394776E-2,1E0,5.3733406E0,1E0,6.3865962E-3,-4.4710323E-2,-5.619539E-2,-3.4230035E-2,-4.231543E-2,-1.6891427E-2],"split_indices":[16,0,36,15,0,24,20,0,25,24,18,0,0,0,0,0,0],"split_type":[0,0,0,0,0,0,0,0,0,0,0,0,0,0,0,0,0],"sum_hessian":[6.4990503E3,2.716469E3,3.7825813E3,5.6030115E2,3.22228E3,3.7786392E2,1.824372E2,3.7486487E2,2.9990613E0,1.0925703E2,7.318016E1,1.1873006E0,1.8117609E0,9.241952E1,1.6837507E1,5.9754253E1,1.3425909E1],"tree_param":{"num_deleted":"0","num_feature":"58","num_nodes":"17","size_leaf_vector":"1"}},{"base_weights":[6.620786E-4,-6.630759E-2,9.590183E-1,-1.1685654E0,6.630363E-2,-1.2510408E0,-8.016643E-1,-1.3031875E0,-1.1014358E0,-8.39057E-1,1.906265E-1,-6.533866E-2,-1.585881E-2,-5.6817412E-2,-2.4062995E-2,-8.021252E-3,-4.4847965E-2,-1.8085625E-2,3.8420923E-2],"categories":[],"categories_nodes":[],"categories_segments":[],"categories_sizes":[],"default_left":[0,0,0,0,0,0,0,0,0,0,0,0,0,0,0,0,0,0,0],"id":14,"left_children":[1,-1,3,5,-1,7,9,11,13,15,17,-1,-1,-1,-1,-1,-1,-1,-1],"loss_changes":[7.9869014E3,0E0,2.8496143E3,1.5251099E1,0E0,1.9721069E0,3.9210968E0,7.112427E-1,2.0372925E0,3.7018585E0,1.7127775E0,0E0,0E0,0E0,0E0,0E0,0E0,0E0,0E0],"parents":[2147483647,0,0,2,2,3,3,5,5,6,6,7,7,8,8,9,9,10,10],"right_children":[2,-1,4,6,-1,8,10,12,14,16,18,-1,-1,-1,-1,-1,-1,-1,-1],"split_conditions":[-4.022955E-1,-6.630759E-2,-2.2675757E0,6.8632954E-1,6.630363E-2,1E0,1.189627E1,1.3253135E1,1E0,1E0,1E0,-6.533866E-2,-1.585881E-2,-5.6817412E-2,-2.4062995E-2,-8.021252E-3,-4.4847965E-2,-1.8085625E-2,3.8420923E-2],"split_indices":[16,0,22,15,0,56,20,24,18,19,35,0,0,0,0,0,0,0,0],"split_type":[0,0,0,0,0,0,0,0,0,0,0,0,0,0,0,0,0,0,0],"sum_hessian":[6.2791816E3,2.6332065E3,3.6459749E3,5.361376E2,3.1098372E3,4.3577115E2,1.0036643E2,3.1741983E2,1.18351326E2,9.687046E1,3.4959717E0,3.159456E2,1.4742332E0,1.11255936E2,7.095392E0,7.911844E0,8.895862E1,1.9785527E0,1.5174189E0],"tree_param":{"num_deleted":"0","num_feature":"58","num_nodes":"19","size_leaf_vector":"1"}},{"base_weights":[-1.292187E-3,-6.525543E-2,9.4143564E-1,-1.141095E0,6.5257534E-2,-1.2284808E0,-7.5894845E-1,-6.434017E-2,-1.0853056E0,-8.698619E-1,-5.113722E-1,-5.8198553E-2,-4.538162E-2,-2.9312586E-2,-4.9774375E-2,-2.7822627E-2,1.7156852E-2],"categories":[],"categories_nodes":[],"categories_segments":[],"categories_sizes":[],"default_left":[0,0,0,0,0,0,0,0,0,0,0,0,0,0,0,0,0],"id":15,"left_children":[1,-1,3,5,-1,7,9,-1,11,13,15,-1,-1,-1,-1,-1,-1],"loss_changes":[7.4637085E3,0E0,2.670843E3,1.6583313E1,0E0,2.154602E0,2.307579E0,0E0,7.532654E-1,1.8318977E0,1.4790297E0,0E0,0E0,0E0,0E0,0E0,0E0],"parents":[2147483647,0,0,2,2,3,3,5,5,6,6,8,8,9,9,10,10],"right_children":[2,-1,4,6,-1,8,10,-1,12,14,16,-1,-1,-1,-1,-1,-1],"split_conditions":[-4.022955E-1,-6.525543E-2,-2.2675757E0,6.8632954E-1,6.5257534E-2,-1.1008509E-1,2.4980001E0,-6.434017E-2,1.4316818E0,-1.1319323E0,2.1037092E1,-5.8198553E-2,-4.538162E-2,-2.9312586E-2,-4.9774375E-2,-2.7822627E-2,1.7156852E-2],"split_indices":[16,0,22,15,0,15,20,0,20,20,24,0,0,0,0,0,0],"split_type":[0,0,0,0,0,0,0,0,0,0,0,0,0,0,0,0,0],"sum_hessian":[6.0702812E3,2.547139E3,3.5231423E3,5.2351337E2,2.999629E3,4.2427853E2,9.923485E1,2.957977E2,1.2848083E2,6.679663E1,3.2438213E1,8.5204865E1,4.327597E1,2.2244492E1,4.4552143E1,3.1143993E1,1.2942196E0],"tree_param":{"num_deleted":"0","num_feature":"58","num_nodes":"17","size_leaf_vector":"1"}},{"base_weights":[3.6707707E-3,-6.429391E-2,9.3198323E-1,-1.1191152E0,6.429147E-2,-1.2275773E0,-8.4968233E-1,-6.215263E-2,-8.6861795E-1,-5.189375E-1,-9.365473E-1,-6.287221E-3,-4.9797338E-2,-3.075861E-2,3.1356018E-2,-4.7583252E-2,1.768245E-2],"categories":[],"categories_nodes":[],"categories_segments":[],"categories_sizes":[],"default_left":[0,0,0,0,0,0,0,0,0,0,0,0,0,0,0,0,0],"id":16,"left_children":[1,-1,3,5,-1,7,9,-1,11,13,15,-1,-1,-1,-1,-1,-1],"loss_changes":[7.0131367E3,0E0,2.4736426E3,1.3618713E1,0E0,8.948364E-1,3.744461E0,0E0,1.5784206E0,4.011157E0,2.5869827E0,0E0,0E0,0E0,0E0,0E0,0E0],"parents":[2147483647,0,0,2,2,3,3,5,5,6,6,8,8,9,9,10,10],"right_children":[2,-1,4,6,-1,8,10,-1,12,14,16,-1,-1,-1,-1,-1,-1],"split_conditions":[-4.022955E-1,-6.429391E-2,-2.2675757E0,5.029596E-1,6.429147E-2,5.361911E0,2.131147E-1,-6.215263E-2,6.665831E0,1.5676334E1,2.1037092E1,-6.287221E-3,-4.9797338E-2,-3.075861E-2,3.1356018E-2,-4.7583252E-2,1.768245E-2],"split_indices":[16,0,22,23,0,24,21,0,24,24,24,0,0,0,0,0,0],"split_type":[0,0,0,0,0,0,0,0,0,0,0,0,0,0,0,0,0],"sum_hessian":[5.8564155E3,2.4511116E3,3.405304E3,5.0071344E2,2.9045906E3,3.544649E2,1.4624854E2,3.374538E2,1.7011099E1,3.1871086E1,1.1437744E2,2.779899E0,1.42312E1,2.9829523E1,2.0415628E0,1.1331211E2,1.0653372E0],"tree_param":{"num_deleted":"0","num_feature":"58","num_nodes":"17","size_leaf_vector":"1"}},{"base_weights":[9.2442485E-4,-6.3402824E-2,9.079632E-1,-1.1094646E0,6.339942E-2,-6.1539482E-2,-8.79798E-1,-9.6947354E-1,-6.600294E-1,-5.2926034E-2,-3.9123904E-2,-3.8275786E-2,-1.1899515E-2],"categories":[],"categories_nodes":[],"categories_segments":[],"categories_sizes":[],"default_left":[0,0,0,0,0,0,0,0,0,0,0,0,0],"id":17,"left_children":[1,-1,3,5,-1,-1,7,9,11,-1,-1,-1,-1],"loss_changes":[6.522207E3,0E0,2.401547E3,1.287561E1,0E0,0E0,2.8417969E0,1.225441E0,2.236534E0,0E0,0E0,0E0,0E0],"parents":[2147483647,0,0,2,2,3,3,6,6,7,7,8,8],"right_children":[2,-1,4,6,-1,-1,8,10,12,-1,-1,-1,-1],"split_conditions":[-4.022955E-1,-6.3402824E-2,1E0,1.7100242E-1,6.339942E-2,-6.1539482E-2,1E0,9.6741706E-1,1.1079608E0,-5.2926034E-2,-3.9123904E-2,-3.8275786E-2,-1.1899515E-2],"split_indices":[16,0,38,15,0,0,42,15,15,0,0,0,0],"split_type":[0,0,0,0,0,0,0,0,0,0,0,0,0],"sum_hessian":[5.6644834E3,2.360983E3,3.3035005E3,4.9994418E2,2.8035564E3,3.2427942E2,1.7566476E2,1.2233515E2,5.332961E1,7.971449E1,4.262066E1,4.2014473E1,1.1315134E1],"tree_param":{"num_deleted":"0","num_feature":"58","num_nodes":"13","size_leaf_vector":"1"}},{"base_weights":[3.7108068E-3,-7.2495574E-1,6.643024E-1,-1.1129625E0,6.533028E-1,-5.89827E-1,1.0973477E0,-6.242993E-2,-6.4374304E-1,-2.5091362E-1,6.2387895E-2,-1.1870173E0,1.5365966E-1,4.6660691E-1,6.252957E-2,-6.2387396E-2,6.2015664E-2,-6.2117588E-2,6.189655E-2,-1.0600057E0,-6.23806E-2,-5.187635E-1,6.2079307E-2,-6.209919E-2,6.235251E-2,-5.421562E-2,-3.0399043E-2,-5.0617546E-2,2.0909354E-3],"categories":[],"categories_nodes":[],"categories_segments":[],"categories_sizes":[],"default_left":[0,0,0,0,0,0,0,0,0,0,0,0,0,0,0,0,0,0,0,0,0,0,0,0,0,0,0,0,0],"id":18,"left_children":[1,3,5,7,9,11,13,-1,15,17,-1,19,21,23,-1,-1,-1,-1,-1,25,-1,27,-1,-1,-1,-1,-1,-1,-1],"loss_changes":[2.6292827E3,1.3897073E3,1.5566007E3,1.282085E2,3.073427E2,3.269689E2,2.0529346E2,0E0,5.211911E2,3.372055E2,0E0,1.8196411E0,2.4112479E2,5.5884985E2,0E0,0E0,0E0,0E0,0E0,8.6268616E-1,0E0,5.6451183E1,0E0,0E0,0E0,0E0,0E0,0E0,0E0],"parents":[2147483647,0,0,1,1,2,2,3,3,4,4,5,5,6,6,8,8,9,9,11,11,12,12,13,13,19,19,21,21],"right_children":[2,4,6,8,10,12,14,-1,16,18,-1,20,22,24,-1,-1,-1,-1,-1,26,-1,28,-1,-1,-1,-1,-1,-1,-1],"split_conditions":[-2.5062886E-1,7.5207305E-1,-3.802953E-1,3.7461692E-1,-1.1875873E0,6.8632954E-1,-2.8391893E-3,-6.242993E-2,-7.1910805E-1,1.1295291E0,6.2387895E-2,-2.2675757E0,-7.577514E-1,2.1785034E-1,6.252957E-2,-6.2387396E-2,6.2015664E-2,-6.2117588E-2,6.189655E-2,1E0,-6.23806E-2,1.1548088E0,6.2079307E-2,-6.209919E-2,6.235251E-2,-5.421562E-2,-3.0399043E-2,-5.0617546E-2,2.0909354E-3],"split_indices":[15,22,22,22,15,15,22,0,15,22,0,22,22,15,0,0,0,0,0,18,0,15,0,0,0,0,0,0,0],"split_type":[0,0,0,0,0,0,0,0,0,0,0,0,0,0,0,0,0,0,0,0,0,0,0,0,0,0,0,0,0],"sum_hessian":[5.4602983E3,2.596323E3,2.8639756E3,2.0261223E3,5.702006E2,7.3500055E2,2.1289749E3,1.5704852E3,4.556371E2,2.2640201E2,3.437986E2,4.0727155E2,3.2772903E2,4.1693668E2,1.7120383E3,3.452818E2,1.10355286E2,1.360022E2,9.039981E1,1.3751706E2,2.697545E2,2.0286552E2,1.2486351E2,1.3054617E2,2.863905E2,1.2917227E2,8.344784E0,1.0745047E2,9.5415054E1],"tree_param":{"num_deleted":"0","num_feature":"58","num_nodes":"29","size_leaf_vector":"1"}},{"base_weights":[-4.203808E-3,-6.182428E-2,8.8017374E-1,-1.0860119E0,6.182461E-2,-1.1697615E0,-7.568827E-1,-1.201311E0,-9.788443E-1,-8.469581E-1,-5.3840756E-1,-6.0326397E-2,-1.7657278E-2,-5.4714777E-2,-3.8555242E-2,-1.593121E-2,-4.47458E-2,-1.6580954E-2,-4.4257954E-2],"categories":[],"categories_nodes":[],"categories_segments":[],"categories_sizes":[],"default_left":[0,0,0,0,0,0,0,0,0,0,0,0,0,0,0,0,0,0,0],"id":19,"left_children":[1,-1,3,5,-1,7,9,11,13,15,17,-1,-1,-1,-1,-1,-1,-1,-1],"loss_changes":[5.7436504E3,0E0,2.1509675E3,1.21050415E1,0E0,1.0759583E0,1.4809685E0,9.7406006E-1,5.572586E-1,1.4365234E0,1.9636421E0,0E0,0E0,0E0,0E0,0E0,0E0,0E0,0E0],"parents":[2147483647,0,0,2,2,3,3,5,5,6,6,7,7,8,8,9,9,10,10],"right_children":[2,-1,4,6,-1,8,10,12,14,16,18,-1,-1,-1,-1,-1,-1,-1,-1],"split_conditions":[-4.022955E-1,-6.182428E-2,1E0,6.394816E-1,6.182461E-2,5.222597E-1,3.0097342E0,1.4414618E1,1.4943094E0,1E0,1E0,-6.0326397E-2,-1.7657278E-2,-5.4714777E-2,-3.8555242E-2,-1.593121E-2,-4.47458E-2,-1.6580954E-2,-4.4257954E-2],"split_indices":[16,0,36,15,0,23,20,24,20,19,50,0,0,0,0,0,0,0,0],"split_type":[0,0,0,0,0,0,0,0,0,0,0,0,0,0,0,0,0,0,0],"sum_hessian":[5.2683613E3,2.2010479E3,3.0673135E3,4.7027292E2,2.5970408E3,3.7284525E2,9.742768E1,3.154279E2,5.741735E1,6.694867E1,3.0479013E1,3.1307965E2,2.348229E0,3.4163403E1,2.3253946E1,6.207445E0,6.074122E1,2.0318342E1,1.0160671E1],"tree_param":{"num_deleted":"0","num_feature":"58","num_nodes":"19","size_leaf_vector":"1"}},{"base_weights":[-1.5563146E-3,-6.1111856E-2,8.7567544E-1,-1.0497671E0,6.111446E-2,-5.8777828E-2,-8.1259847E-1,-9.4330156E-1,-6.104921E-1,-4.9530756E-2,-2.5774086E-2,-3.5558667E-2,-8.400028E-3],"categories":[],"categories_nodes":[],"categories_segments":[],"categories_sizes":[],"default_left":[0,0,0,0,0,0,0,0,0,0,0,0,0],"id":20,"left_children":[1,-1,3,5,-1,-1,7,9,11,-1,-1,-1,-1],"loss_changes":[5.4149595E3,0E0,1.9649595E3,1.2452057E1,0E0,0E0,3.6239624E0,1.4065552E0,2.788494E0,0E0,0E0,0E0,0E0],"parents":[2147483647,0,0,2,2,3,3,6,6,7,7,8,8],"right_children":[2,-1,4,6,-1,-1,8,10,12,-1,-1,-1,-1],"split_conditions":[-4.022955E-1,-6.1111856E-2,-2.2675757E0,1.7100242E-1,6.111446E-2,-5.8777828E-2,8.622645E-1,1.2485045E0,1E0,-4.9530756E-2,-2.5774086E-2,-3.5558667E-2,-8.400028E-3],"split_indices":[16,0,22,15,0,0,20,15,18,0,0,0,0],"split_type":[0,0,0,0,0,0,0,0,0,0,0,0,0],"sum_hessian":[5.054835E3,2.1134897E3,2.9413452E3,4.4840765E2,2.4929375E3,2.9041876E2,1.579889E2,9.371538E1,6.427352E1,8.319875E1,1.0516625E1,5.1865288E1,1.2408236E1],"tree_param":{"num_deleted":"0","num_feature":"58","num_nodes":"13","size_leaf_vector":"1"}},{"base_weights":[-2.1918074E-3,-6.045221E-2,8.6537886E-1,-1.0211744E0,6.0453422E-2,-1.119521E0,-6.169376E-1,-5.9180398E-2,-9.9650294E-1,-6.365155E-1,1.9708164E-2,-5.1082473E-2,-2.839689E-2,-1.999407E-2,-3.499078E-2],"categories":[],"categories_nodes":[],"categories_segments":[],"categories_sizes":[],"default_left":[0,0,0,0,0,0,0,0,0,0,0,0,0,0,0],"id":21,"left_children":[1,-1,3,5,-1,7,9,-1,11,13,-1,-1,-1,-1,-1],"loss_changes":[5.0921523E3,0E0,1.8358074E3,1.6665283E1,0E0,1.5791931E0,1.9860725E0,0E0,7.7957153E-1,1.0139427E0,0E0,0E0,0E0,0E0,0E0],"parents":[2147483647,0,0,2,2,3,3,5,5,6,6,8,8,9,9],"right_children":[2,-1,4,6,-1,8,10,-1,12,14,-1,-1,-1,-1,-1],"split_conditions":[-4.022955E-1,-6.045221E-2,-2.2675757E0,6.8632954E-1,6.0453422E-2,-2.5062886E-1,2.1037092E1,-5.9180398E-2,1E0,-1.1319323E0,1.9708164E-2,-5.1082473E-2,-2.839689E-2,-1.999407E-2,-3.499078E-2],"split_indices":[16,0,22,15,0,15,24,0,18,20,0,0,0,0,0],"split_type":[0,0,0,0,0,0,0,0,0,0,0,0,0,0,0],"sum_hessian":[4.8614272E3,2.0329943E3,2.828433E3,4.355694E2,2.3928638E3,3.489131E2,8.665632E1,2.2373544E2,1.25177635E2,8.5373695E1,1.2826179E0,1.169326E2,8.245039E0,1.9562101E1,6.58116E1],"tree_param":{"num_deleted":"0","num_feature":"58","num_nodes":"15","size_leaf_vector":"1"}},{"base_weights":[6.479594E-3,-6.888784E-1,6.293103E-1,-1.0617068E0,6.2334245E-1,-5.521259E-1,1.0515509E0,-5.9708882E-2,-6.0389113E-1,-2.3972134E-1,5.962771E-2,-1.1155685E0,1.470672E-1,4.4780838E-1,5.9785694E-2,-5.9625007E-2,5.9221417E-2,-5.932891E-2,5.9083343E-2,-9.6154153E-1,-5.9610456E-2,-4.7771856E-1,5.9293002E-2,-5.929671E-2,5.958457E-2,-4.969195E-2,-2.4810787E-2,-3.4962706E-2,3.0759541E-2],"categories":[],"categories_nodes":[],"categories_segments":[],"categories_sizes":[],"default_left":[0,0,0,0,0,0,0,0,0,0,0,0,0,0,0,0,0,0,0,0,0,0,0,0,0,0,0,0,0],"id":22,"left_children":[1,3,5,7,9,11,13,-1,15,17,-1,19,21,23,-1,-1,-1,-1,-1,25,-1,27,-1,-1,-1,-1,-1,-1,-1],"loss_changes":[2.0254106E3,1.081707E3,1.2312312E3,1.0366089E2,2.4077776E2,2.563131E2,1.5767908E2,0E0,4.1012088E2,2.6435794E2,0E0,3.1053772E0,1.8945177E2,4.291856E2,0E0,0E0,0E0,0E0,0E0,1.382988E0,0E0,4.460262E1,0E0,0E0,0E0,0E0,0E0,0E0,0E0],"parents":[2147483647,0,0,1,1,2,2,3,3,4,4,5,5,6,6,8,8,9,9,11,11,12,12,13,13,19,19,21,21],"right_children":[2,4,6,8,10,12,14,-1,16,18,-1,20,22,24,-1,-1,-1,-1,-1,26,-1,28,-1,-1,-1,-1,-1,-1,-1],"split_conditions":[-2.5062886E-1,7.5207305E-1,-3.802953E-1,3.7461692E-1,-1.1875873E0,6.8632954E-1,-2.8391893E-3,-5.9708882E-2,-7.1910805E-1,1.1295291E0,5.962771E-2,-2.2675757E0,-7.577514E-1,2.1785034E-1,5.9785694E-2,-5.9625007E-2,5.9221417E-2,-5.932891E-2,5.9083343E-2,1E0,-5.9610456E-2,1.3890483E0,5.9293002E-2,-5.929671E-2,5.958457E-2,-4.969195E-2,-2.4810787E-2,-3.4962706E-2,3.0759541E-2],"split_indices":[15,22,22,22,15,15,22,0,15,22,0,22,22,15,0,0,0,0,0,18,0,15,0,0,0,0,0,0,0],"split_type":[0,0,0,0,0,0,0,0,0,0,0,0,0,0,0,0,0,0,0,0,0,0,0,0,0,0,0,0,0],"sum_hessian":[4.6746465E3,2.2086726E3,2.4659739E3,1.7201377E3,4.885349E2,6.491984E2,1.8167754E3,1.3328607E3,3.8727698E2,1.9438252E2,2.941524E2,3.5916824E2,2.9003018E2,3.509852E2,1.4657902E3,2.916246E2,9.565239E1,1.1676487E2,7.7617645E1,1.2383643E2,2.353318E2,1.8144159E2,1.0858859E2,1.0962613E2,2.4135909E2,1.1473695E2,9.099481E0,1.5116104E2,3.0280544E1],"tree_param":{"num_deleted":"0","num_feature":"58","num_nodes":"29","size_leaf_vector":"1"}},{"base_weights":[2.943479E-4,-5.927795E-2,8.458112E-1,-9.83863E-1,5.9278052E-2,-1.0903195E0,-5.960774E-1,-5.7742853E-2,-9.293573E-1,-7.153544E-1,-3.3362335E-1,-4.805488E-2,-2.3552565E-2,-2.3924043E-2,-4.4575613E-2,-4.4911318E-3,-3.9459363E-2],"categories":[],"categories_nodes":[],"categories_segments":[],"categories_sizes":[],"default_left":[0,0,0,0,0,0,0,0,0,0,0,0,0,0,0,0,0],"id":23,"left_children":[1,-1,3,5,-1,7,9,-1,11,13,15,-1,-1,-1,-1,-1,-1],"loss_changes":[4.5184863E3,0E0,1.6365311E3,1.638092E1,0E0,2.2766724E0,2.6121254E0,0E0,9.643402E-1,2.1495361E0,3.2976234E0,0E0,0E0,0E0,0E0,0E0,0E0],"parents":[2147483647,0,0,2,2,3,3,5,5,6,6,8,8,9,9,10,10],"right_children":[2,-1,4,6,-1,8,10,-1,12,14,16,-1,-1,-1,-1,-1,-1],"split_conditions":[-4.022955E-1,-5.927795E-2,1E0,6.394816E-1,5.9278052E-2,-1.1008509E-1,2.4980001E0,-5.7742853E-2,1E0,-8.1055343E-1,1E0,-4.805488E-2,-2.3552565E-2,-2.3924043E-2,-4.4575613E-2,-4.4911318E-3,-3.9459363E-2],"split_indices":[16,0,38,15,0,15,20,0,18,20,50,0,0,0,0,0,0],"split_type":[0,0,0,0,0,0,0,0,0,0,0,0,0,0,0,0,0],"sum_hessian":[4.5045034E3,1.8747412E3,2.6297622E3,4.1154578E2,2.2182166E3,3.2148007E2,9.0065704E1,2.2506572E2,9.641436E1,6.0737022E1,2.9328682E1,8.9143585E1,7.270778E0,2.7489298E1,3.3247723E1,1.9884441E1,9.444241E0],"tree_param":{"num_deleted":"0","num_feature":"58","num_nodes":"17","size_leaf_vector":"1"}},{"base_weights":[9.785184E-4,-6.832026E-1,6.1549395E-1,-1.0432856E0,5.9776026E-1,-5.222439E-1,1.029069E0,-1.170786E0,-6.033859E-1,-2.6542056E-1,5.8511265E-2,-1.0810014E0,1.3778922E-1,4.3617874E-1,5.867975E-2,-5.8564585E-2,-1.6512418E-2,-5.8513023E-2,5.8075514E-2,-5.8207203E-2,5.790885E-2,-1.1290979E0,-7.0766747E-1,-4.4029862E-1,5.8157887E-2,-5.817256E-2,5.846999E-2,-4.986467E-2,-5.8486056E-2,-4.0287215E-2,1.5815001E-2,-4.3191798E-2,1.4355152E-3],"categories":[],"categories_nodes":[],"categories_segments":[],"categories_sizes":[],"default_left":[0,0,0,0,0,0,0,0,0,0,0,0,0,0,0,0,0,0,0,0,0,0,0,0,0,0,0,0,0,0,0,0,0],"id":24,"left_children":[1,3,5,7,9,11,13,15,17,19,-1,21,23,25,-1,-1,-1,-1,-1,-1,-1,27,29,31,-1,-1,-1,-1,-1,-1,-1,-1,-1],"loss_changes":[1.8182092E3,9.444764E2,1.0725496E3,8.890112E1,2.224943E2,2.2439314E2,1.426919E2,1.3916016E-1,3.626006E2,2.3178221E2,0E0,5.115631E0,1.6627216E2,3.8739536E2,0E0,0E0,0E0,0E0,0E0,0E0,0E0,3.8687134E-1,4.299282E0,3.569124E1,0E0,0E0,0E0,0E0,0E0,0E0,0E0,0E0,0E0],"parents":[2147483647,0,0,1,1,2,2,3,3,4,4,5,5,6,6,7,7,8,8,9,9,11,11,12,12,13,13,21,21,22,22,23,23],"right_children":[2,4,6,8,10,12,14,16,18,20,-1,22,24,26,-1,-1,-1,-1,-1,-1,-1,28,30,32,-1,-1,-1,-1,-1,-1,-1,-1,-1],"split_conditions":[-2.5062886E-1,7.5207305E-1,-3.802953E-1,3.7461692E-1,-1.1875873E0,6.8632954E-1,-2.8391893E-3,7.627686E-1,-7.1910805E-1,1.1295291E0,5.8511265E-2,1.4316818E0,-7.577514E-1,2.1785034E-1,5.867975E-2,-5.8564585E-2,-1.6512418E-2,-5.8513023E-2,5.8075514E-2,-5.8207203E-2,5.790885E-2,-2.2675757E0,1E0,1.1548088E0,5.8157887E-2,-5.817256E-2,5.846999E-2,-4.986467E-2,-5.8486056E-2,-4.0287215E-2,1.5815001E-2,-4.3191798E-2,1.4355152E-3],"split_indices":[15,22,22,22,15,15,22,23,15,22,0,20,22,15,0,0,0,0,0,0,0,22,18,15,0,0,0,0,0,0,0,0,0],"split_type":[0,0,0,0,0,0,0,0,0,0,0,0,0,0,0,0,0,0,0,0,0,0,0,0,0,0,0,0,0,0,0,0,0],"sum_hessian":[4.32254E3,2.0452806E3,2.2772595E3,1.5966442E3,4.4863647E2,6.070399E2,1.6702197E3,1.2365743E3,3.600699E2,1.7910803E2,2.6952844E2,3.2839563E2,2.7864432E2,3.2813345E2,1.3420862E3,1.2354375E3,1.1368E0,2.7278867E2,8.728123E1,1.0990609E2,6.920195E1,2.8912354E2,3.9272095E1,1.7855064E2,1.0009366E2,1.0294875E2,2.251847E2,7.4135574E1,2.1498796E2,3.6033844E1,3.2382488E0,9.338118E1,8.5169464E1],"tree_param":{"num_deleted":"0","num_feature":"58","num_nodes":"33","size_leaf_vector":"1"}},{"base_weights":[-5.1398557E-3,-6.7766875E-1,5.981828E-1,-8.2879245E-1,-3.286307E-1,-7.7909976E-1,7.401794E-1,-9.786357E-1,-6.3436407E-1,-5.781946E-1,-6.501653E-3,-9.221516E-1,-5.897161E-1,4.2656985E-1,1.040304E0,-1.0732498E0,-8.252502E-1,-8.2459295E-1,-4.2601866E-1,-8.1542736E-1,-2.6082852E-1,-2.6360303E-1,2.796888E-1,-9.484663E-1,-3.8520268E-1,-6.87043E-1,-2.8024954E-1,1.900137E-1,6.801778E-1,9.655168E-1,5.5661965E-2,-5.6412168E-2,-4.797797E-2,-4.8988912E-2,-3.2885637E-2,-4.84703E-2,-3.310492E-2,-3.2718495E-2,-8.569138E-3,-4.889688E-2,-2.6100805E-2,-2.6132463E-2,1.525672E-3,-2.80273E-2,1.1041661E-3,3.9988334E-4,2.9076785E-2,-4.8437744E-2,-1.5950263E-2,-4.2007193E-2,1.756518E-2,-4.0088933E-2,-2.386907E-2,1.9611536E-2,-2.5123755E-2,-4.3006735E-3,2.4694527E-2,2.381963E-2,4.3917384E-2,4.271218E-2,5.403286E-2],"categories":[],"categories_nodes":[],"categories_segments":[],"categories_sizes":[],"default_left":[0,0,0,0,0,0,0,0,0,0,0,0,0,0,0,0,0,0,0,0,0,0,0,0,0,0,0,0,0,0,0,0,0,0,0,0,0,0,0,0,0,0,0,0,0,0,0,0,0,0,0,0,0,0,0,0,0,0,0,0,0],"id":25,"left_children":[1,3,5,7,9,11,13,15,17,19,21,23,25,27,29,31,33,35,37,39,41,43,45,47,49,51,53,55,57,59,-1,-1,-1,-1,-1,-1,-1,-1,-1,-1,-1,-1,-1,-1,-1,-1,-1,-1,-1,-1,-1,-1,-1,-1,-1,-1,-1,-1,-1,-1,-1],"loss_changes":[1.6860752E3,1.0337793E2,4.2895667E2,3.9310852E1,4.7860275E1,5.0157166E0,1.8650244E2,1.0321106E1,2.340509E1,2.504451E1,1.9272028E1,1.261406E0,2.5507107E0,5.824234E1,4.4572754E0,1.8828125E0,7.0948486E0,6.705948E0,1.6642654E1,8.620621E0,1.1074031E1,1.1715758E1,1.0161113E1,1.0838699E0,2.6615984E0,1.2674446E0,3.7059877E0,4.238439E1,1.8528915E1,5.589142E0,0E0,0E0,0E0,0E0,0E0,0E0,0E0,0E0,0E0,0E0,0E0,0E0,0E0,0E0,0E0,0E0,0E0,0E0,0E0,0E0,0E0,0E0,0E0,0E0,0E0,0E0,0E0,0E0,0E0,0E0,0E0],"parents":[2147483647,0,0,1,1,2,2,3,3,4,4,5,5,6,6,7,7,8,8,9,9,10,10,11,11,12,12,13,13,14,14,15,15,16,16,17,17,18,18,19,19,20,20,21,21,22,22,23,23,24,24,25,25,26,26,27,27,28,28,29,29],"right_children":[2,4,6,8,10,12,14,16,18,20,22,24,26,28,30,32,34,36,38,40,42,44,46,48,50,52,54,56,58,60,-1,-1,-1,-1,-1,-1,-1,-1,-1,-1,-1,-1,-1,-1,-1,-1,-1,-1,-1,-1,-1,-1,-1,-1,-1,-1,-1,-1,-1,-1,-1],"split_conditions":[-2.5617757E-1,-7.233389E-1,1E0,1E0,1E0,1E0,6.4647317E-1,1E0,1E0,1E0,1E0,1E0,1E0,1E0,1E0,1E0,1E0,1E0,1E0,1E0,1E0,1E0,1E0,1.6596458E0,1.4316818E0,8.622645E-1,-9.8772377E-1,1E0,1E0,1E0,5.5661965E-2,-5.6412168E-2,-4.797797E-2,-4.8988912E-2,-3.2885637E-2,-4.84703E-2,-3.310492E-2,-3.2718495E-2,-8.569138E-3,-4.889688E-2,-2.6100805E-2,-2.6132463E-2,1.525672E-3,-2.80273E-2,1.1041661E-3,3.9988334E-4,2.9076785E-2,-4.8437744E-2,-1.5950263E-2,-4.2007193E-2,1.756518E-2,-4.0088933E-2,-2.386907E-2,1.9611536E-2,-2.5123755E-2,-4.3006735E-3,2.4694527E-2,2.381963E-2,4.3917384E-2,4.271218E-2,5.403286E-2],"split_indices":[23,23,36,13,9,57,23,10,12,14,3,18,17,14,12,0,5,5,4,10,8,13,1,23,20,20,20,8,3,11,0,0,0,0,0,0,0,0,0,0,0,0,0,0,0,0,0,0,0,0,0,0,0,0,0,0,0,0,0,0,0],"split_type":[0,0,0,0,0,0,0,0,0,0,0,0,0,0,0,0,0,0,0,0,0,0,0,0,0,0,0,0,0,0,0,0,0,0,0,0,0,0,0,0,0,0,0,0,0,0,0,0,0,0,0,0,0,0,0,0,0,0,0,0,0],"sum_hessian":[4.153435E3,1.9640116E3,2.1894236E3,1.369627E3,5.9438464E2,2.0421106E2,1.9852124E3,7.712228E2,5.984041E2,3.344671E2,2.599175E2,1.14131836E2,9.007922E1,9.719806E2,1.0132318E3,4.7328516E2,2.9793765E2,3.112556E2,2.8714847E2,1.9049887E2,1.4396823E2,1.3695862E2,1.229589E2,1.08069214E2,6.062625E0,6.759925E1,2.2479977E1,5.0380197E2,4.6817862E2,5.0729465E2,5.059372E2,3.1297238E2,1.6031277E2,1.5246431E2,1.4547334E2,1.6195647E2,1.4929916E2,1.5056007E2,1.3658841E2,1.2109538E2,6.940349E1,7.540762E1,6.8560616E1,6.668452E1,7.027411E1,6.525218E1,5.770672E1,1.0417253E2,3.896683E0,3.6606932E0,2.4019318E0,4.186488E1,2.5734371E1,5.393528E0,1.7086449E1,2.643741E2,2.3942787E2,2.324972E2,2.3568143E2,2.6226114E2,2.4503351E2],"tree_param":{"num_deleted":"0","num_feature":"58","num_nodes":"61","size_leaf_vector":"1"}},{"base_weights":[1.6055658E-3,-5.806432E-2,8.3292437E-1,-9.501841E-1,5.801956E-2,-1.0752875E0,-6.5939736E-1,-5.4166824E-2,-2.506421E-1,-8.142574E-1,-4.3801194E-1,2.2516986E-2,-3.8221832E-2,-4.7200873E-2,-2.6846096E-2,-2.7617713E-2,-1.2755975E-3],"categories":[],"categories_nodes":[],"categories_segments":[],"categories_sizes":[],"default_left":[0,0,0,0,0,0,0,0,0,0,0,0,0,0,0,0,0],"id":26,"left_children":[1,-1,3,5,-1,7,9,-1,11,13,15,-1,-1,-1,-1,-1,-1],"loss_changes":[3.9343665E3,0E0,1.3868403E3,1.2706085E1,0E0,1.4293518E0,3.535015E0,0E0,1.7049345E0,1.8548927E0,2.2916517E0,0E0,0E0,0E0,0E0,0E0,0E0],"parents":[2147483647,0,0,2,2,3,3,5,5,6,6,8,8,9,9,10,10],"right_children":[2,-1,4,6,-1,8,10,-1,12,14,16,-1,-1,-1,-1,-1,-1],"split_conditions":[-4.022955E-1,-5.806432E-2,-2.2675757E0,5.5739576E-1,5.801956E-2,1.4414618E1,1.3608136E0,-5.4166824E-2,1E0,1E0,1E0,2.2516986E-2,-3.8221832E-2,-4.7200873E-2,-2.6846096E-2,-2.7617713E-2,-1.2755975E-3],"split_indices":[16,0,22,23,0,24,20,0,49,30,30,0,0,0,0,0,0],"split_type":[0,0,0,0,0,0,0,0,0,0,0,0,0,0,0,0,0],"sum_hessian":[4.067751E3,1.695542E3,2.372209E3,3.677657E2,2.0044434E3,2.5525224E2,1.1251343E2,2.5247427E2,2.7779763E0,6.462793E1,4.7885498E1,1.2271919E0,1.5507842E0,4.239038E1,2.223755E1,3.7227295E1,1.0658203E1],"tree_param":{"num_deleted":"0","num_feature":"58","num_nodes":"17","size_leaf_vector":"1"}},{"base_weights":[1.329728E-3,-5.76024E-2,8.255134E-1,-9.1830075E-1,5.7563167E-2,-1.0865775E0,-6.457952E-1,-5.4577153E-2,-1.4403634E-2,-7.7695626E-1,-4.452502E-1,-4.2997357E-2,-1.2111815E-2,-1.6028678E-2,-3.4029637E-2],"categories":[],"categories_nodes":[],"categories_segments":[],"categories_sizes":[],"default_left":[0,0,0,0,0,0,0,0,0,0,0,0,0,0,0],"id":27,"left_children":[1,-1,3,5,-1,7,9,-1,-1,11,13,-1,-1,-1,-1],"loss_changes":[3.7008906E3,0E0,1.2908997E3,1.5712982E1,0E0,5.57251E-1,3.3134956E0,0E0,0E0,3.4647331E0,1.4646616E0,0E0,0E0,0E0,0E0],"parents":[2147483647,0,0,2,2,3,3,5,5,6,6,9,9,10,10],"right_children":[2,-1,4,6,-1,8,10,-1,-1,12,14,-1,-1,-1,-1],"split_conditions":[-4.022955E-1,-5.76024E-2,-2.2675757E0,1.7100242E-1,5.7563167E-2,1.4414618E1,9.6609455E-1,-5.4577153E-2,-1.4403634E-2,5.3733406E0,1E0,-4.2997357E-2,-1.2111815E-2,-1.6028678E-2,-3.4029637E-2],"split_indices":[16,0,22,15,0,24,20,0,0,24,50,0,0,0,0],"split_type":[0,0,0,0,0,0,0,0,0,0,0,0,0,0,0],"sum_hessian":[3.8912349E3,1.6215751E3,2.2696597E3,3.569588E2,1.9127009E3,2.1883632E2,1.3812247E2,2.1711916E2,1.7171608E0,8.176927E1,5.63532E1,7.0256874E1,1.1512397E1,3.8381897E1,1.7971302E1],"tree_param":{"num_deleted":"0","num_feature":"58","num_nodes":"15","size_leaf_vector":"1"}},{"base_weights":[6.385828E-5,-6.4549965E-1,5.8111626E-1,-1.0091989E0,6.228903E-1,-5.1536715E-1,9.9760514E-1,-5.6830134E-2,-5.7258606E-1,-1.8692686E-1,5.7213116E-2,-1.047453E0,1.3399968E-1,4.1317052E-1,5.699202E-2,-5.681769E-2,5.667884E-2,-5.6469638E-2,5.6672182E-2,-1.1022854E0,-7.0285666E-1,-3.8827634E-1,5.6312818E-2,-5.6823105E-2,5.674698E-2,-4.053653E-2,-5.618027E-2,-3.9291E-2,6.9551007E-3,-4.045433E-2,2.3325454E-3],"categories":[],"categories_nodes":[],"categories_segments":[],"categories_sizes":[],"default_left":[0,0,0,0,0,0,0,0,0,0,0,0,0,0,0,0,0,0,0,0,0,0,0,0,0,0,0,0,0,0,0],"id":28,"left_children":[1,3,5,7,9,11,13,-1,15,17,-1,19,21,23,-1,-1,-1,-1,-1,25,27,29,-1,-1,-1,-1,-1,-1,-1,-1,-1],"loss_changes":[1.3988003E3,8.155269E2,8.9678076E2,7.573572E1,1.6667891E2,1.8703885E2,1.1779236E2,0E0,3.015921E2,1.9450745E2,0E0,4.8450317E0,1.27144455E2,3.1450543E2,0E0,0E0,0E0,0E0,0E0,6.730652E-1,3.1540642E0,2.9491241E1,0E0,0E0,0E0,0E0,0E0,0E0,0E0,0E0,0E0],"parents":[2147483647,0,0,1,1,2,2,3,3,4,4,5,5,6,6,8,8,9,9,11,11,12,12,13,13,19,19,20,20,21,21],"right_children":[2,4,6,8,10,12,14,-1,16,18,-1,20,22,24,-1,-1,-1,-1,-1,26,28,30,-1,-1,-1,-1,-1,-1,-1,-1,-1],"split_conditions":[-2.5062886E-1,7.5207305E-1,-3.802953E-1,3.7461692E-1,-1.1875873E0,6.8632954E-1,-2.8391893E-3,-5.6830134E-2,-7.1910805E-1,1.1295291E0,5.7213116E-2,8.622645E-1,-7.577514E-1,2.1785034E-1,5.699202E-2,-5.681769E-2,5.667884E-2,-5.6469638E-2,5.6672182E-2,-1.520059E0,1E0,1.1548088E0,5.6312818E-2,-5.6823105E-2,5.674698E-2,-4.053653E-2,-5.618027E-2,-3.9291E-2,6.9551007E-3,-4.045433E-2,2.3325454E-3],"split_indices":[15,22,22,22,15,15,22,0,15,22,0,20,22,15,0,0,0,0,0,20,18,15,0,0,0,0,0,0,0,0,0],"split_type":[0,0,0,0,0,0,0,0,0,0,0,0,0,0,0,0,0,0,0,0,0,0,0,0,0,0,0,0,0,0,0],"sum_hessian":[3.7270776E3,1.7654777E3,1.9616E3,1.3722125E3,3.932651E2,5.399211E2,1.4216788E3,1.0610072E3,3.1120535E2,1.5427701E2,2.389881E2,2.9642212E2,2.4349895E2,2.7903766E2,1.1426412E3,2.3416435E2,7.704101E1,9.01054E1,6.41716E1,2.538333E2,4.2588837E1,1.5992882E2,8.357012E1,8.8485466E1,1.9055219E2,1.99561E1,2.338772E2,3.8829414E1,3.7594223E0,8.084634E1,7.908249E1],"tree_param":{"num_deleted":"0","num_feature":"58","num_nodes":"31","size_leaf_vector":"1"}},{"base_weights":[5.895583E-4,-5.6788333E-2,8.087871E-1,-8.8722473E-1,5.6749362E-2,-1.0632828E0,-6.049422E-1,-5.341205E-2,-1.9243132E-2,-7.2256076E-1,-3.9834747E-1,-3.9096694E-2,-1.3861135E-2,-1.5570953E-5,-2.6170546E-2],"categories":[],"categories_nodes":[],"categories_segments":[],"categories_sizes":[],"default_left":[0,0,0,0,0,0,0,0,0,0,0,0,0,0,0],"id":29,"left_children":[1,-1,3,5,-1,7,9,-1,-1,11,13,-1,-1,-1,-1],"loss_changes":[3.288623E3,0E0,1.1586897E3,1.6160126E1,0E0,2.848816E-1,2.924408E0,0E0,0E0,1.978054E0,2.498095E0,0E0,0E0,0E0,0E0],"parents":[2147483647,0,0,2,2,3,3,5,5,6,6,9,9,10,10],"right_children":[2,-1,4,6,-1,8,10,-1,-1,12,14,-1,-1,-1,-1],"split_conditions":[-4.022955E-1,-5.6788333E-2,-2.2675757E0,1.7100242E-1,5.6749362E-2,1.4414618E1,9.6741706E-1,-5.341205E-2,-1.9243132E-2,1E0,-1.197032E0,-3.9096694E-2,-1.3861135E-2,-1.5570953E-5,-2.6170546E-2],"split_indices":[16,0,22,15,0,24,15,0,0,18,20,0,0,0,0],"split_type":[0,0,0,0,0,0,0,0,0,0,0,0,0,0,0],"sum_hessian":[3.5788164E3,1.4872632E3,2.0915532E3,3.371081E2,1.7544452E3,2.0591393E2,1.3119415E2,2.038495E2,2.0644212E0,8.200792E1,4.9186237E1,7.169377E1,1.0314149E1,1.1999199E1,3.718704E1],"tree_param":{"num_deleted":"0","num_feature":"58","num_nodes":"15","size_leaf_vector":"1"}},{"base_weights":[2.6483796E-4,-5.6407847E-2,8.031216E-1,-8.7464887E-1,5.6375224E-2,-1.0654576E0,-5.781628E-1,-5.3695835E-2,-4.050546E-1,-7.284344E-1,-3.363752E-1,6.978558E-3,-3.6554467E-2,-4.3384004E-2,-2.5076983E-2,2.7365077E-2,-1.8702073E-2],"categories":[],"categories_nodes":[],"categories_segments":[],"categories_sizes":[],"default_left":[0,0,0,0,0,0,0,0,0,0,0,0,0,0,0,0,0],"id":30,"left_children":[1,-1,3,5,-1,7,9,-1,11,13,15,-1,-1,-1,-1,-1,-1],"loss_changes":[3.123094E3,0E0,1.0971926E3,1.7877243E1,0E0,6.694641E-1,4.4852295E0,0E0,8.311266E-1,2.0743752E0,1.9274597E0,0E0,0E0,0E0,0E0,0E0,0E0],"parents":[2147483647,0,0,2,2,3,3,5,5,6,6,8,8,9,9,10,10],"right_children":[2,-1,4,6,-1,8,10,-1,12,14,16,-1,-1,-1,-1,-1,-1],"split_conditions":[-4.022955E-1,-5.6407847E-2,1E0,1.7100242E-1,5.6375224E-2,1.068106E0,1.3608136E0,-5.3695835E-2,3.0458665E-2,9.6741706E-1,2.1785034E-1,6.978558E-3,-3.6554467E-2,-4.3384004E-2,-2.5076983E-2,2.7365077E-2,-1.8702073E-2],"split_indices":[16,0,36,15,0,23,20,0,15,15,15,0,0,0,0,0,0],"split_type":[0,0,0,0,0,0,0,0,0,0,0,0,0,0,0,0,0],"sum_hessian":[3.4452715E3,1.4320743E3,2.0131973E3,3.2589728E2,1.6873E3,1.9670848E2,1.291888E2,1.936025E2,3.1059883E0,7.843103E1,5.0757774E1,1.3772573E0,1.7287309E0,4.685307E1,3.1577963E1,1.5219299E0,4.9235844E1],"tree_param":{"num_deleted":"0","num_feature":"58","num_nodes":"17","size_leaf_vector":"1"}},{"base_weights":[2.3829543E-3,-5.6057584E-2,7.967269E-1,-8.428226E-1,5.6024443E-2,-1.0498325E0,-5.316518E-1,-5.2906908E-2,-4.507157E-1,-6.703001E-1,-3.3311114E-1,6.784475E-4,-3.0406175E-2,-3.8177527E-2,-8.150797E-3,-2.2359466E-2,6.2390696E-3],"categories":[],"categories_nodes":[],"categories_segments":[],"categories_sizes":[],"default_left":[0,0,0,0,0,0,0,0,0,0,0,0,0,0,0,0,0],"id":31,"left_children":[1,-1,3,5,-1,7,9,-1,11,13,15,-1,-1,-1,-1,-1,-1],"loss_changes":[2.9497102E3,0E0,1.0287234E3,2.0045853E1,0E0,4.7375488E-1,3.3499947E0,0E0,3.264786E-1,3.4444046E0,2.947753E0,0E0,0E0,0E0,0E0,0E0,0E0],"parents":[2147483647,0,0,2,2,3,3,5,5,6,6,8,8,9,9,10,10],"right_children":[2,-1,4,6,-1,8,10,-1,12,14,16,-1,-1,-1,-1,-1,-1],"split_conditions":[-4.022955E-1,-5.6057584E-2,1E0,1.7100242E-1,5.6024443E-2,9.78891E0,9.6609455E-1,-5.2906908E-2,1E0,5.3733406E0,1E0,6.784475E-4,-3.0406175E-2,-3.8177527E-2,-8.150797E-3,-2.2359466E-2,6.2390696E-3],"split_indices":[16,0,36,15,0,24,20,0,49,24,18,0,0,0,0,0,0],"split_type":[0,0,0,0,0,0,0,0,0,0,0,0,0,0,0,0,0],"sum_hessian":[3.3030967E3,1.367901E3,1.9351957E3,3.188612E2,1.6163346E3,1.9005267E2,1.2880852E2,1.8669829E2,3.3543806E0,7.444481E1,5.4363712E1,1.0806702E0,2.2737103E0,6.2458363E1,1.1986444E1,4.353972E1,1.0823997E1],"tree_param":{"num_deleted":"0","num_feature":"58","num_nodes":"17","size_leaf_vector":"1"}},{"base_weights":[-3.3314358E-3,-6.2901545E-1,5.505892E-1,-9.818222E-1,5.8832693E-1,-4.9803635E-1,9.690372E-1,-5.5353682E-2,-5.552971E-1,-2.1620655E-1,5.56674E-2,-1.0020745E0,8.572293E-2,3.9755526E-1,5.5559278E-2,-5.53523E-2,5.5070754E-2,-5.4965764E-2,5.498826E-2,-1.0651766E0,-5.9821606E-1,-3.855311E-1,5.479577E-2,-5.523449E-2,5.5282205E-2,-4.5467176E-2,-5.5605497E-2,-3.4891695E-2,6.865275E-3,-3.9044287E-2,1.4070016E-3],"categories":[],"categories_nodes":[],"categories_segments":[],"categories_sizes":[],"default_left":[0,0,0,0,0,0,0,0,0,0,0,0,0,0,0,0,0,0,0,0,0,0,0,0,0,0,0,0,0,0,0],"id":32,"left_children":[1,3,5,7,9,11,13,-1,15,17,-1,19,21,23,-1,-1,-1,-1,-1,25,27,29,-1,-1,-1,-1,-1,-1,-1,-1,-1],"loss_changes":[1.0962976E3,6.3852655E2,7.367018E2,6.092798E1,1.4148346E2,1.4108981E2,9.700818E1,0E0,2.420862E2,1.5563556E2,0E0,5.918579E0,1.065692E2,2.5705338E2,0E0,0E0,0E0,0E0,0E0,6.0658264E-1,2.810069E0,2.500905E1,0E0,0E0,0E0,0E0,0E0,0E0,0E0,0E0,0E0],"parents":[2147483647,0,0,1,1,2,2,3,3,4,4,5,5,6,6,8,8,9,9,11,11,12,12,13,13,19,19,20,20,21,21],"right_children":[2,4,6,8,10,12,14,-1,16,18,-1,20,22,24,-1,-1,-1,-1,-1,26,28,30,-1,-1,-1,-1,-1,-1,-1,-1,-1],"split_conditions":[-2.5062886E-1,7.5207305E-1,-3.802953E-1,3.7461692E-1,-1.1875873E0,6.8632954E-1,-2.8391893E-3,-5.5353682E-2,-7.1910805E-1,1.1295291E0,5.56674E-2,9.6609455E-1,-7.577514E-1,2.1785034E-1,5.5559278E-2,-5.53523E-2,5.5070754E-2,-5.4965764E-2,5.498826E-2,-2.2675757E0,1E0,1.1548088E0,5.479577E-2,-5.523449E-2,5.5282205E-2,-4.5467176E-2,-5.5605497E-2,-3.4891695E-2,6.865275E-3,-3.9044287E-2,1.4070016E-3],"split_indices":[15,22,22,22,15,15,22,0,15,22,0,20,22,15,0,0,0,0,0,22,18,15,0,0,0,0,0,0,0,0,0],"split_type":[0,0,0,0,0,0,0,0,0,0,0,0,0,0,0,0,0,0,0,0,0,0,0,0,0,0,0,0,0,0,0],"sum_hessian":[3.1611953E3,1.4843756E3,1.6768198E3,1.1509918E3,3.333838E2,4.7821884E2,1.198601E3,8.88487E2,2.625048E2,1.3188052E2,2.0150327E2,2.562484E2,2.2197043E2,2.395062E2,9.590947E2,1.9717102E2,6.533376E1,7.901834E1,5.286218E1,2.2020444E2,3.604398E1,1.5178241E2,7.018802E1,7.654729E1,1.6295891E2,5.5685818E1,1.6451862E2,3.1789677E1,4.254302E0,7.7155495E1,7.462691E1],"tree_param":{"num_deleted":"0","num_feature":"58","num_nodes":"31","size_leaf_vector":"1"}},{"base_weights":[4.8690208E-4,-5.541862E-2,7.839717E-1,-8.284643E-1,5.5390444E-2,-1.0333683E0,-5.37141E-1,-5.239987E-2,-6.49173E-1,-6.9998604E-1,-4.1325298E-1,-4.4366922E-2,-1.5174083E-2,-2.5688583E-2,-5.015669E-2,8.018569E-3,-2.3785045E-2],"categories":[],"categories_nodes":[],"categories_segments":[],"categories_sizes":[],"default_left":[0,0,0,0,0,0,0,0,0,0,0,0,0,0,0,0,0],"id":33,"left_children":[1,-1,3,5,-1,7,9,-1,11,13,15,-1,-1,-1,-1,-1,-1],"loss_changes":[2.628051E3,0E0,9.264939E2,1.7175629E1,0E0,2.9367065E-1,2.2271576E0,0E0,4.7040057E-1,2.4455528E0,2.7013454E0,0E0,0E0,0E0,0E0,0E0,0E0],"parents":[2147483647,0,0,2,2,3,3,5,5,6,6,8,8,9,9,10,10],"right_children":[2,-1,4,6,-1,8,10,-1,12,14,16,-1,-1,-1,-1,-1,-1],"split_conditions":[-4.022955E-1,-5.541862E-2,-2.2675757E0,1.7100242E-1,5.5390444E-2,1E0,6.8632954E-1,-5.239987E-2,-1.5693301E-1,1E0,1E0,-4.4366922E-2,-1.5174083E-2,-2.5688583E-2,-5.015669E-2,8.018569E-3,-2.3785045E-2],"split_indices":[16,0,22,15,0,17,15,0,15,46,19,0,0,0,0,0,0],"split_type":[0,0,0,0,0,0,0,0,0,0,0,0,0,0,0,0,0],"sum_hessian":[3.0230095E3,1.2514409E3,1.7715685E3,2.9603003E2,1.4755385E3,1.7229684E2,1.2373317E2,1.6431256E2,7.9842854E0,5.1451912E1,7.2281265E1,3.7996502E0,4.1846347E0,3.3542545E1,1.7909367E1,6.9424376E0,6.533882E1],"tree_param":{"num_deleted":"0","num_feature":"58","num_nodes":"17","size_leaf_vector":"1"}},{"base_weights":[-2.6260826E-3,-5.5128276E-2,7.7837175E-1,-8.093328E-1,5.5098005E-2,-9.554367E-1,-3.7245342E-1,-5.309362E-2,-7.800305E-1,-5.3140324E-1,8.068703E-2,-4.4664424E-2,-2.993212E-2,-3.0316353E-2,7.407131E-3,3.9054185E-2,-1.0948583E-2],"categories":[],"categories_nodes":[],"categories_segments":[],"categories_sizes":[],"default_left":[0,0,0,0,0,0,0,0,0,0,0,0,0,0,0,0,0],"id":34,"left_children":[1,-1,3,5,-1,7,9,-1,11,13,15,-1,-1,-1,-1,-1,-1],"loss_changes":[2.5006396E3,0E0,8.754523E2,1.8076675E1,0E0,3.199936E0,5.373583E0,0E0,1.2165909E0,2.8861723E0,4.3869824E0,0E0,0E0,0E0,0E0,0E0,0E0],"parents":[2147483647,0,0,2,2,3,3,5,5,6,6,8,8,9,9,10,10],"right_children":[2,-1,4,6,-1,8,10,-1,12,14,16,-1,-1,-1,-1,-1,-1],"split_conditions":[-4.022955E-1,-5.5128276E-2,-2.2675757E0,6.8632954E-1,5.5098005E-2,-2.5062886E-1,5.550069E0,-5.309362E-2,8.622645E-1,1.0313273E1,3.4096017E-2,-4.4664424E-2,-2.993212E-2,-3.0316353E-2,7.407131E-3,3.9054185E-2,-1.0948583E-2],"split_indices":[16,0,22,15,0,15,24,0,20,20,20,0,0,0,0,0,0],"split_type":[0,0,0,0,0,0,0,0,0,0,0,0,0,0,0,0,0],"sum_hessian":[2.9089358E3,1.2076697E3,1.701266E3,2.877759E2,1.4134901E3,2.1476567E2,7.301023E1,1.3051561E2,8.425006E1,5.392281E1,1.9087425E1,4.944935E1,3.4800713E1,4.8664963E1,5.257845E0,5.237998E0,1.3849428E1],"tree_param":{"num_deleted":"0","num_feature":"58","num_nodes":"17","size_leaf_vector":"1"}},{"base_weights":[-1.6175068E-3,-5.4844584E-2,7.758983E-1,-7.903489E-1,5.482269E-2,-1.000336E0,-4.9663356E-1,-1.0108738E0,2.7760721E-3,-6.712419E-1,-2.5539997E-1,-5.2688815E-2,-4.1838657E-2,-3.825525E-2,-8.662735E-3,1.8579362E-2,-1.4589052E-2],"categories":[],"categories_nodes":[],"categories_segments":[],"categories_sizes":[],"default_left":[0,0,0,0,0,0,0,0,0,0,0,0,0,0,0,0,0],"id":35,"left_children":[1,-1,3,5,-1,7,9,11,-1,13,15,-1,-1,-1,-1,-1,-1],"loss_changes":[2.3706528E3,0E0,8.182645E2,1.6598526E1,0E0,1.8434601E0,4.7794228E0,3.0665588E-1,0E0,3.0258656E0,1.2710085E0,0E0,0E0,0E0,0E0,0E0,0E0],"parents":[2147483647,0,0,2,2,3,3,5,5,6,6,7,7,9,9,10,10],"right_children":[2,-1,4,6,-1,8,10,12,-1,14,16,-1,-1,-1,-1,-1,-1],"split_conditions":[-4.022955E-1,-5.4844584E-2,1E0,1.7100242E-1,5.482269E-2,1.4414618E1,9.6609455E-1,-2.5062886E-1,2.7760721E-3,5.3733406E0,2.1785034E-1,-5.2688815E-2,-4.1838657E-2,-3.825525E-2,-8.662735E-3,1.8579362E-2,-1.4589052E-2],"split_indices":[16,0,36,15,0,24,20,15,0,24,15,0,0,0,0,0,0],"split_type":[0,0,0,0,0,0,0,0,0,0,0,0,0,0,0,0,0],"sum_hessian":[2.7817869E3,1.1547284E3,1.6270583E3,2.7617764E2,1.3508807E3,1.5963986E2,1.1653777E2,1.5810454E2,1.5353274E0,6.6570526E1,4.9967243E1,1.2279282E2,3.531171E1,5.556161E1,1.1008917E1,2.2350419E0,4.77322E1],"tree_param":{"num_deleted":"0","num_feature":"58","num_nodes":"17","size_leaf_vector":"1"}},{"base_weights":[-1.3980904E-3,-5.4584052E-2,7.635159E-1,-7.77656E-1,5.456043E-2,-9.9629104E-1,-4.8860878E-1,-5.051222E-2,-2.0511557E-1,-6.2968075E-1,-2.8617266E-1,1.6996693E-2,-2.6202753E-2,-3.629127E-2,-7.553452E-3,-2.1196647E-2,5.8226325E-3],"categories":[],"categories_nodes":[],"categories_segments":[],"categories_sizes":[],"default_left":[0,0,0,0,0,0,0,0,0,0,0,0,0,0,0,0,0],"id":36,"left_children":[1,-1,3,5,-1,7,9,-1,11,13,15,-1,-1,-1,-1,-1,-1],"loss_changes":[2.2188127E3,0E0,7.9050146E2,1.6876007E1,0E0,1.509018E0,3.2548428E0,0E0,8.646322E-1,3.1138554E0,2.890923E0,0E0,0E0,0E0,0E0,0E0,0E0],"parents":[2147483647,0,0,2,2,3,3,5,5,6,6,8,8,9,9,10,10],"right_children":[2,-1,4,6,-1,8,10,-1,12,14,16,-1,-1,-1,-1,-1,-1],"split_conditions":[-4.022955E-1,-5.4584052E-2,-2.2675757E0,1.7100242E-1,5.456043E-2,9.720328E0,9.6609455E-1,-5.051222E-2,1E0,5.2141976E0,1.477862E0,1.6996693E-2,-2.6202753E-2,-3.629127E-2,-7.553452E-3,-2.1196647E-2,5.8226325E-3],"split_indices":[16,0,22,15,0,24,20,0,25,24,23,0,0,0,0,0,0],"split_type":[0,0,0,0,0,0,0,0,0,0,0,0,0,0,0,0,0],"sum_hessian":[2.6585347E3,1.095961E3,1.5625736E3,2.737459E2,1.2888276E3,1.5446324E2,1.1928267E2,1.5151422E2,2.9490156E0,6.905187E1,5.0230793E1,1.064323E0,1.8846928E0,5.7070824E1,1.198105E1,3.738605E1,1.2844743E1],"tree_param":{"num_deleted":"0","num_feature":"58","num_nodes":"17","size_leaf_vector":"1"}},{"base_weights":[-3.8546592E-3,-6.105129E-1,5.265983E-1,-9.5433944E-1,5.775807E-1,-4.7019285E-1,9.431355E-1,-5.383342E-2,-5.3273547E-1,-1.9939075E-1,5.4174997E-2,-9.636878E-1,9.024923E-2,3.7219927E-1,5.4193914E-2,-5.3931404E-2,5.3475287E-2,-5.3444754E-2,5.3331353E-2,-1.0265632E0,-5.3557754E-1,-3.3845836E-1,5.3299397E-2,-5.3659387E-2,5.3846497E-2,-5.319047E-2,-3.8745407E-2,-3.2116976E-2,1.6267944E-2,-3.539215E-2,1.7113321E-3],"categories":[],"categories_nodes":[],"categories_segments":[],"categories_sizes":[],"default_left":[0,0,0,0,0,0,0,0,0,0,0,0,0,0,0,0,0,0,0,0,0,0,0,0,0,0,0,0,0,0,0],"id":37,"left_children":[1,3,5,7,9,11,13,-1,15,17,-1,19,21,23,-1,-1,-1,-1,-1,25,27,29,-1,-1,-1,-1,-1,-1,-1,-1,-1],"loss_changes":[8.1869226E2,4.853513E2,5.6399036E2,4.6916077E1,1.0516466E2,1.1090749E2,7.654468E1,0E0,1.8401216E2,1.1797252E2,0E0,5.1878357E0,7.922518E1,1.9560768E2,0E0,0E0,0E0,0E0,0E0,9.0753174E-1,2.9101448E0,1.8160362E1,0E0,0E0,0E0,0E0,0E0,0E0,0E0,0E0,0E0],"parents":[2147483647,0,0,1,1,2,2,3,3,4,4,5,5,6,6,8,8,9,9,11,11,12,12,13,13,19,19,20,20,21,21],"right_children":[2,4,6,8,10,12,14,-1,16,18,-1,20,22,24,-1,-1,-1,-1,-1,26,28,30,-1,-1,-1,-1,-1,-1,-1,-1,-1],"split_conditions":[-2.5062886E-1,7.5207305E-1,-3.802953E-1,3.7461692E-1,-1.1875873E0,6.8632954E-1,-2.8391893E-3,-5.383342E-2,-7.1910805E-1,1.1295291E0,5.4174997E-2,1.5594093E0,-7.577514E-1,2.1785034E-1,5.4193914E-2,-5.3931404E-2,5.3475287E-2,-5.3444754E-2,5.3331353E-2,1E0,1E0,1.1548088E0,5.3299397E-2,-5.3659387E-2,5.3846497E-2,-5.319047E-2,-3.8745407E-2,-3.2116976E-2,1.6267944E-2,-3.539215E-2,1.7113321E-3],"split_indices":[15,22,22,22,15,15,22,0,15,22,0,20,22,15,0,0,0,0,0,39,18,15,0,0,0,0,0,0,0,0,0],"split_type":[0,0,0,0,0,0,0,0,0,0,0,0,0,0,0,0,0,0,0,0,0,0,0,0,0,0,0,0,0,0,0],"sum_hessian":[2.542075E3,1.1857865E3,1.3562885E3,9.1979926E2,2.659872E2,3.996884E2,9.5660004E2,7.1173486E2,2.0806445E2,1.0513332E2,1.6085387E2,2.1215588E2,1.875325E2,1.8989958E2,7.6670044E2,1.55434E2,5.2630444E1,6.2419292E1,4.2714035E1,1.8376843E2,2.838744E1,1.3074191E2,5.679058E1,6.2070835E1,1.2782875E2,1.5726514E2,2.6503304E1,2.548147E1,2.9059687E0,6.521004E1,6.5531876E1],"tree_param":{"num_deleted":"0","num_feature":"58","num_nodes":"31","size_leaf_vector":"1"}},{"base_weights":[-3.716245E-3,-5.4110117E-2,7.5260854E-1,-7.7094465E-1,5.40902E-2,-4.9791336E-2,-4.8227385E-1,-6.2595713E-1,-2.7642182E-1,-3.478007E-2,-1.4280441E-2,-5.3982046E-3,-2.609855E-2],"categories":[],"categories_nodes":[],"categories_segments":[],"categories_sizes":[],"default_left":[0,0,0,0,0,0,0,0,0,0,0,0,0],"id":38,"left_children":[1,-1,3,5,-1,-1,7,9,11,-1,-1,-1,-1],"loss_changes":[1.9851263E3,0E0,7.182994E2,1.6057678E1,0E0,0E0,3.1838722E0,1.3669319E0,1.9475644E0,0E0,0E0,0E0,0E0],"parents":[2147483647,0,0,2,2,3,3,6,6,7,7,8,8],"right_children":[2,-1,4,6,-1,-1,8,10,12,-1,-1,-1,-1],"split_conditions":[-4.022955E-1,-5.4110117E-2,-2.2675757E0,1.7100242E-1,5.40902E-2,-4.9791336E-2,1.1177194E0,1E0,1E0,-3.478007E-2,-1.4280441E-2,-5.3982046E-3,-2.609855E-2],"split_indices":[16,0,22,15,0,0,20,17,46,0,0,0,0],"split_type":[0,0,0,0,0,0,0,0,0,0,0,0,0],"sum_hessian":[2.4316917E3,1.0021866E3,1.4295051E3,2.5375536E2,1.1757498E3,1.4126024E2,1.1249512E2,6.504993E1,4.744519E1,5.313359E1,1.1916333E1,2.8993818E1,1.8451374E1],"tree_param":{"num_deleted":"0","num_feature":"58","num_nodes":"13","size_leaf_vector":"1"}},{"base_weights":[-3.8408213E-3,-5.388804E-2,7.470203E-1,-7.511151E-1,5.3867675E-2,-9.8564976E-1,-4.7078153E-1,-4.9878705E-2,-2.446367E-1,-5.444006E-1,-7.984932E-2,3.7563376E-3,-2.0300778E-2,-3.20218E-2,-1.8927466E-2,-1.0804407E-2,4.1808333E-2],"categories":[],"categories_nodes":[],"categories_segments":[],"categories_sizes":[],"default_left":[0,0,0,0,0,0,0,0,0,0,0,0,0,0,0,0,0],"id":39,"left_children":[1,-1,3,5,-1,7,9,-1,11,13,15,-1,-1,-1,-1,-1,-1],"loss_changes":[1.8766974E3,0E0,6.786506E2,1.5844116E1,0E0,9.4122314E-1,3.2634354E0,0E0,2.0849538E-1,1.2949219E0,2.5993629E0,0E0,0E0,0E0,0E0,0E0,0E0],"parents":[2147483647,0,0,2,2,3,3,5,5,6,6,8,8,9,9,10,10],"right_children":[2,-1,4,6,-1,8,10,-1,12,14,16,-1,-1,-1,-1,-1,-1],"split_conditions":[-4.022955E-1,-5.388804E-2,-2.2675757E0,1.7100242E-1,5.3867675E-2,9.720328E0,1E0,-4.9878705E-2,1E0,9.6741706E-1,1E0,3.7563376E-3,-2.0300778E-2,-3.20218E-2,-1.8927466E-2,-1.0804407E-2,4.1808333E-2],"split_indices":[16,0,22,15,0,24,18,0,25,15,32,0,0,0,0,0,0],"split_type":[0,0,0,0,0,0,0,0,0,0,0,0,0,0,0,0,0],"sum_hessian":[2.3253567E3,9.566589E2,1.3686979E3,2.4704039E2,1.1216575E3,1.3313774E2,1.1390264E2,1.3068848E2,2.4492674E0,9.5521736E1,1.8380901E1,1.0007685E0,1.448499E0,5.8681175E1,3.684056E1,1.6666237E1,1.7146653E0],"tree_param":{"num_deleted":"0","num_feature":"58","num_nodes":"17","size_leaf_vector":"1"}},{"base_weights":[-1.4443597E-3,-5.3677525E-2,7.4729645E-1,-7.142548E-1,5.3663578E-2,-9.685979E-1,-4.0683165E-1,-4.9088582E-2,1.1531598E-2,-5.300571E-1,-2.4255669E-1,-3.462407E-2,-1.3226359E-2,-5.4296283E-3,-2.7123475E-2],"categories":[],"categories_nodes":[],"categories_segments":[],"categories_sizes":[],"default_left":[0,0,0,0,0,0,0,0,0,0,0,0,0,0,0],"id":40,"left_children":[1,-1,3,5,-1,7,9,-1,-1,11,13,-1,-1,-1,-1],"loss_changes":[1.7864128E3,0E0,6.250412E2,1.83367E1,0E0,2.286049E0,2.1018429E0,0E0,0E0,2.4956913E0,1.9125643E0,0E0,0E0,0E0,0E0],"parents":[2147483647,0,0,2,2,3,3,5,5,6,6,9,9,10,10],"right_children":[2,-1,4,6,-1,8,10,-1,-1,12,14,-1,-1,-1,-1],"split_conditions":[-4.022955E-1,-5.3677525E-2,-2.2675757E0,1.7100242E-1,5.3663578E-2,1.3386781E1,9.6609455E-1,-4.9088582E-2,1.1531598E-2,1E0,1E0,-3.462407E-2,-1.3226359E-2,-5.4296283E-3,-2.7123475E-2],"split_indices":[16,0,22,15,0,24,20,0,0,30,50,0,0,0,0],"split_type":[0,0,0,0,0,0,0,0,0,0,0,0,0,0,0],"sum_hessian":[2.2234236E3,9.141039E2,1.3093197E3,2.3855159E2,1.0707681E3,1.2936894E2,1.09182655E2,1.281426E2,1.2263368E0,6.1113647E1,4.8069008E1,3.6921116E1,2.419253E1,3.4168713E1,1.3900296E1],"tree_param":{"num_deleted":"0","num_feature":"58","num_nodes":"15","size_leaf_vector":"1"}},{"base_weights":[-4.4080415E-3,-5.348278E-2,7.3450243E-1,-7.179664E-1,5.3468723E-2,-8.7442964E-1,-3.05874E-1,-5.052465E-2,-6.7827386E-1,-4.047503E-1,-4.1183945E-2,-3.6036607E-2,-1.0044711E-2,-2.3468493E-2,7.034208E-3,1.849753E-2,-2.9894484E-2],"categories":[],"categories_nodes":[],"categories_segments":[],"categories_sizes":[],"default_left":[0,0,0,0,0,0,0,0,0,0,0,0,0,0,0,0,0],"id":41,"left_children":[1,-1,3,5,-1,7,9,-1,11,13,15,-1,-1,-1,-1,-1,-1],"loss_changes":[1.6848737E3,0E0,6.155026E2,1.5039055E1,0E0,3.8925781E0,1.7333565E0,0E0,1.340744E0,1.7778735E0,4.638291E0,0E0,0E0,0E0,0E0,0E0,0E0],"parents":[2147483647,0,0,2,2,3,3,5,5,6,6,8,8,9,9,10,10],"right_children":[2,-1,4,6,-1,8,10,-1,12,14,16,-1,-1,-1,-1,-1,-1],"split_conditions":[-4.022955E-1,-5.348278E-2,-2.2675757E0,6.8632954E-1,5.3468723E-2,-2.5062886E-1,5.550069E0,-5.052465E-2,1E0,1.0313273E1,1E0,-3.6036607E-2,-1.0044711E-2,-2.3468493E-2,7.034208E-3,1.849753E-2,-2.9894484E-2],"split_indices":[16,0,22,15,0,15,24,0,18,20,31,0,0,0,0,0,0],"split_type":[0,0,0,0,0,0,0,0,0,0,0,0,0,0,0,0,0],"sum_hessian":[2.1385498E3,8.756806E2,1.2628693E3,2.3639389E2,1.0264753E3,1.7052647E2,6.586742E1,9.823465E1,7.229182E1,4.7568733E1,1.8298685E1,6.591918E1,6.37264E0,4.265473E1,4.914E0,1.071844E1,7.580245E0],"tree_param":{"num_deleted":"0","num_feature":"58","num_nodes":"17","size_leaf_vector":"1"}},{"base_weights":[-6.16259E-5,-5.3295832E-2,7.410754E-1,-6.672609E-1,5.3281892E-2,-9.839887E-1,-4.0753466E-1,-9.888078E-1,-1.5961668E-2,-5.517314E-1,-2.0685203E-1,-4.971243E-2,-1.3667181E-2,-3.1959087E-2,-6.3038655E-3,-3.7966247E-3,-2.6937952E-2],"categories":[],"categories_nodes":[],"categories_segments":[],"categories_sizes":[],"default_left":[0,0,0,0,0,0,0,0,0,0,0,0,0,0,0,0,0],"id":42,"left_children":[1,-1,3,5,-1,7,9,11,-1,13,15,-1,-1,-1,-1,-1,-1],"loss_changes":[1.6129448E3,0E0,5.5122644E2,1.8205894E1,0E0,8.560181E-3,3.5315933E0,1.17492676E-1,0E0,2.6259365E0,2.3175082E0,0E0,0E0,0E0,0E0,0E0,0E0],"parents":[2147483647,0,0,2,2,3,3,5,5,6,6,7,7,9,9,10,10],"right_children":[2,-1,4,6,-1,8,10,12,-1,14,16,-1,-1,-1,-1,-1,-1],"split_conditions":[-4.022955E-1,-5.3295832E-2,-2.2675757E0,-1.1008509E-1,5.3281892E-2,1.0373608E1,9.6609455E-1,7.627686E-1,-1.5961668E-2,5.2141976E0,1E0,-4.971243E-2,-1.3667181E-2,-3.1959087E-2,-6.3038655E-3,-3.7966247E-3,-2.6937952E-2],"split_indices":[16,0,22,15,0,24,20,23,0,24,50,0,0,0,0,0,0],"split_type":[0,0,0,0,0,0,0,0,0,0,0,0,0,0,0,0,0],"sum_hessian":[2.0398453E3,8.36462E2,1.2033834E3,2.2518939E2,9.7819403E2,1.0020455E2,1.2498483E2,9.899938E1,1.2051675E0,7.170982E1,5.327501E1,9.786552E1,1.1338724E0,5.9071896E1,1.2637928E1,3.9086323E1,1.4188684E1],"tree_param":{"num_deleted":"0","num_feature":"58","num_nodes":"17","size_leaf_vector":"1"}},{"base_weights":[-1.2857043E-4,-5.3120673E-2,7.3189455E-1,-6.725347E-1,5.3105783E-2,-9.5649207E-1,-3.5101876E-1,-4.854114E-2,4.3423395E-3,-6.5820396E-1,-2.4704328E-1,-3.5444044E-2,5.774479E-3,6.5595284E-3,-1.8859738E-2],"categories":[],"categories_nodes":[],"categories_segments":[],"categories_sizes":[],"default_left":[0,0,0,0,0,0,0,0,0,0,0,0,0,0,0],"id":43,"left_children":[1,-1,3,5,-1,7,9,-1,-1,11,13,-1,-1,-1,-1],"loss_changes":[1.5163015E3,0E0,5.361021E2,1.978392E1,0E0,1.8253555E0,3.18892E0,0E0,0E0,1.098732E0,3.9875984E0,0E0,0E0,0E0,0E0],"parents":[2147483647,0,0,2,2,3,3,5,5,6,6,9,9,10,10],"right_children":[2,-1,4,6,-1,8,10,-1,-1,12,14,-1,-1,-1,-1],"split_conditions":[-4.022955E-1,-5.3120673E-2,1E0,1.7100242E-1,5.3105783E-2,1.3386781E1,5.029596E-1,-4.854114E-2,4.3423395E-3,1E0,2.131147E-1,-3.5444044E-2,5.774479E-3,6.5595284E-3,-1.8859738E-2],"split_indices":[16,0,36,15,0,24,23,0,0,31,21,0,0,0,0],"split_type":[0,0,0,0,0,0,0,0,0,0,0,0,0,0,0],"sum_hessian":[1.9479333E3,7.945134E2,1.1534199E3,2.1937639E2,9.340435E2,1.1544362E2,1.0393277E2,1.13948E2,1.4956174E0,2.4934855E1,7.899792E1,2.3480644E1,1.4542105E0,2.0222174E1,5.877574E1],"tree_param":{"num_deleted":"0","num_feature":"58","num_nodes":"15","size_leaf_vector":"1"}},{"base_weights":[-1.1892511E-3,-5.2953657E-2,7.231175E-1,-6.3979936E-1,5.294169E-2,-4.9578648E-2,-4.2034993E-1,-5.765567E-1,-2.2621085E-1,-1.954974E-2,-3.9705276E-2,-3.0460222E-2,-4.028617E-3],"categories":[],"categories_nodes":[],"categories_segments":[],"categories_sizes":[],"default_left":[0,0,0,0,0,0,0,0,0,0,0,0,0],"id":44,"left_children":[1,-1,3,5,-1,-1,7,9,11,-1,-1,-1,-1],"loss_changes":[1.4340181E3,0E0,5.089776E2,1.6580498E1,0E0,0E0,4.034216E0,2.7354774E0,3.4580576E0,0E0,0E0,0E0,0E0],"parents":[2147483647,0,0,2,2,3,3,6,6,7,7,8,8],"right_children":[2,-1,4,6,-1,-1,8,10,12,-1,-1,-1,-1],"split_conditions":[-4.022955E-1,-5.2953657E-2,-2.2675757E0,-2.4677496E-1,5.294169E-2,-4.9578648E-2,8.622645E-1,1.3541405E0,5.029596E-1,-1.954974E-2,-3.9705276E-2,-3.0460222E-2,-4.028617E-3],"split_indices":[16,0,22,23,0,0,20,21,23,0,0,0,0],"split_type":[0,0,0,0,0,0,0,0,0,0,0,0,0],"sum_hessian":[1.8695189E3,7.5961035E2,1.1099086E3,2.1918231E2,8.9072626E2,8.285259E1,1.3632973E2,7.44536E1,6.187612E1,4.169038E1,3.276322E1,1.617E1,4.570612E1],"tree_param":{"num_deleted":"0","num_feature":"58","num_nodes":"13","size_leaf_vector":"1"}},{"base_weights":[1.855068E-3,-5.2793063E-2,7.246492E-1,-6.2898034E-1,5.2784212E-2,-9.2431355E-1,-3.0932617E-1,-9.4424665E-1,-1.9228278E-2,-4.2128217E-1,-2.9623626E-2,-4.9743466E-2,-3.9549388E-2,1.7615074E-2,-1.7335298E-2,-2.9431919E-2,-8.985509E-3,9.451191E-3,-2.5280029E-2],"categories":[],"categories_nodes":[],"categories_segments":[],"categories_sizes":[],"default_left":[0,0,0,0,0,0,0,0,0,0,0,0,0,0,0,0,0,0,0],"id":45,"left_children":[1,-1,3,5,-1,7,9,11,13,15,17,-1,-1,-1,-1,-1,-1,-1,-1],"loss_changes":[1.364918E3,0E0,4.759123E2,1.944757E1,0E0,1.9329147E0,3.1779966E0,3.3866882E-2,5.2987885E-1,2.8327942E0,3.2384837E0,0E0,0E0,0E0,0E0,0E0,0E0,0E0,0E0],"parents":[2147483647,0,0,2,2,3,3,5,5,6,6,7,7,8,8,9,9,10,10],"right_children":[2,-1,4,6,-1,8,10,12,14,16,18,-1,-1,-1,-1,-1,-1,-1,-1],"split_conditions":[-4.022955E-1,-5.2793063E-2,-2.2675757E0,1.7100242E-1,5.2784212E-2,9.720328E0,5.6681137E0,-3.9117262E-1,1E0,9.6741706E-1,1E0,-4.9743466E-2,-3.9549388E-2,1.7615074E-2,-1.7335298E-2,-2.9431919E-2,-8.985509E-3,9.451191E-3,-2.5280029E-2],"split_indices":[16,0,22,15,0,24,20,15,25,15,50,0,0,0,0,0,0,0,0],"split_type":[0,0,0,0,0,0,0,0,0,0,0,0,0,0,0,0,0,0,0],"sum_hessian":[1.7833466E3,7.237584E2,1.0595881E3,2.0803127E2,8.5155695E2,1.0714594E2,1.0088533E2,1.0479473E2,2.3512084E0,7.168566E1,2.9199665E1,7.464683E1,3.0147903E1,1.0660037E0,1.2852048E0,4.1499172E1,3.0186493E1,2.042157E1,8.778095E0],"tree_param":{"num_deleted":"0","num_feature":"58","num_nodes":"19","size_leaf_vector":"1"}},{"base_weights":[1.6303435E-3,-5.2640267E-2,7.1790993E-1,-6.1526775E-1,5.2634723E-2,-9.198424E-1,-3.0817816E-1,-9.355202E-1,-1.1140758E-1,-3.9527744E-1,1.3617823E-2,-4.944549E-2,-3.865319E-2,3.9470894E-3,-1.2328822E-2,-2.8504867E-2,-8.189983E-3,5.3221166E-2,-9.466625E-3],"categories":[],"categories_nodes":[],"categories_segments":[],"categories_sizes":[],"default_left":[0,0,0,0,0,0,0,0,0,0,0,0,0,0,0,0,0,0,0],"id":46,"left_children":[1,-1,3,5,-1,7,9,11,13,15,17,-1,-1,-1,-1,-1,-1,-1,-1],"loss_changes":[1.2901647E3,0E0,4.546588E2,1.8871948E1,0E0,1.1925964E0,2.905838E0,1.04904175E-1,9.875403E-2,3.2036037E0,5.108638E0,0E0,0E0,0E0,0E0,0E0,0E0,0E0,0E0],"parents":[2147483647,0,0,2,2,3,3,5,5,6,6,7,7,8,8,9,9,10,10],"right_children":[2,-1,4,6,-1,8,10,12,14,16,18,-1,-1,-1,-1,-1,-1,-1,-1],"split_conditions":[-4.022955E-1,-5.2640267E-2,-2.2675757E0,1.7100242E-1,5.2634723E-2,1.068106E0,5.3733406E0,-3.9117262E-1,1.5989636E0,8.0705327E-1,6.583182E0,-4.944549E-2,-3.865319E-2,3.9470894E-3,-1.2328822E-2,-2.8504867E-2,-8.189983E-3,5.3221166E-2,-9.466625E-3],"split_indices":[16,0,22,15,0,23,24,15,20,20,24,0,0,0,0,0,0,0,0],"split_type":[0,0,0,0,0,0,0,0,0,0,0,0,0,0,0,0,0,0,0],"sum_hessian":[1.7062141E3,6.8999786E2,1.0162162E3,2.0380133E2,8.1241486E2,1.0131786E2,1.0248347E2,9.9236206E1,2.0816553E0,8.047363E1,2.2009838E1,7.0861145E1,2.8375065E1,1.0371219E0,1.0445334E0,4.5014385E1,3.5459248E1,2.8757038E0,1.9134134E1],"tree_param":{"num_deleted":"0","num_feature":"58","num_nodes":"19","size_leaf_vector":"1"}},{"base_weights":[-1.917555E-3,-5.2500773E-2,7.0843947E-1,-6.1511976E-1,5.249369E-2,-9.791287E-1,-3.6447543E-1,-9.8572665E-1,-1.2280169E-2,-4.7132608E-1,-1.03195496E-1,-4.9637426E-2,-1.1819794E-2,-3.0034764E-2,-1.3231011E-2,-1.4364177E-2,1.989053E-2],"categories":[],"categories_nodes":[],"categories_segments":[],"categories_sizes":[],"default_left":[0,0,0,0,0,0,0,0,0,0,0,0,0,0,0,0,0],"id":47,"left_children":[1,-1,3,5,-1,7,9,11,-1,13,15,-1,-1,-1,-1,-1,-1],"loss_changes":[1.2138252E3,0E0,4.3978226E2,1.7881485E1,0E0,1.4955902E-1,3.3009043E0,1.8556213E-1,0E0,2.1106892E0,3.4441507E0,0E0,0E0,0E0,0E0,0E0,0E0],"parents":[2147483647,0,0,2,2,3,3,5,5,6,6,7,7,9,9,10,10],"right_children":[2,-1,4,6,-1,8,10,12,-1,14,16,-1,-1,-1,-1,-1,-1],"split_conditions":[-4.022955E-1,-5.2500773E-2,-2.2675757E0,-1.1008509E-1,5.249369E-2,8.543019E0,5.6681137E0,7.627686E-1,-1.2280169E-2,1E0,1.505245E0,-4.9637426E-2,-1.1819794E-2,-3.0034764E-2,-1.3231011E-2,-1.4364177E-2,1.989053E-2],"split_indices":[16,0,22,15,0,24,20,23,0,30,23,0,0,0,0,0,0],"split_type":[0,0,0,0,0,0,0,0,0,0,0,0,0,0,0,0,0],"sum_hessian":[1.6283387E3,6.5760126E2,9.707374E2,1.989013E2,7.718361E2,7.99231E1,1.18978195E2,7.886986E1,1.0532451E0,8.3873955E1,3.510424E1,7.781582E1,1.0540434E0,5.0415077E1,3.3458874E1,2.5983526E1,9.120715E0],"tree_param":{"num_deleted":"0","num_feature":"58","num_nodes":"17","size_leaf_vector":"1"}},{"base_weights":[-5.356609E-3,-5.2366324E-2,7.0344466E-1,-6.023203E-1,5.235914E-2,-8.5540944E-1,-2.568869E-1,-8.96609E-1,-2.4080281E-1,-3.5984263E-1,2.057497E-1,-4.8791263E-2,-3.7430495E-2,3.2308437E-2,-2.3016438E-2,-2.4823321E-2,-9.98387E-3,2.2696307E-2,-1.8653154E-2],"categories":[],"categories_nodes":[],"categories_segments":[],"categories_sizes":[],"default_left":[0,0,0,0,0,0,0,0,0,0,0,0,0,0,0,0,0,0,0],"id":48,"left_children":[1,-1,3,5,-1,7,9,11,13,15,17,-1,-1,-1,-1,-1,-1,-1,-1],"loss_changes":[1.1555751E3,0E0,4.1859503E2,1.6800941E1,0E0,2.618431E0,4.0633473E0,4.9504852E-1,1.9328814E0,1.4079514E0,2.4507792E0,0E0,0E0,0E0,0E0,0E0,0E0,0E0,0E0],"parents":[2147483647,0,0,2,2,3,3,5,5,6,6,7,7,8,8,9,9,10,10],"right_children":[2,-1,4,6,-1,8,10,12,14,16,18,-1,-1,-1,-1,-1,-1,-1,-1],"split_conditions":[-4.022955E-1,-5.2366324E-2,-2.2675757E0,5.222597E-1,5.235914E-2,5.2889333E0,1E0,-3.9117262E-1,-1.3618417E0,9.6609455E-1,1E0,-4.8791263E-2,-3.7430495E-2,3.2308437E-2,-2.3016438E-2,-2.4823321E-2,-9.98387E-3,2.2696307E-2,-1.8653154E-2],"split_indices":[16,0,22,23,0,24,18,15,20,20,50,0,0,0,0,0,0,0,0],"split_type":[0,0,0,0,0,0,0,0,0,0,0,0,0,0,0,0,0,0,0],"sum_hessian":[1.5626572E3,6.324498E2,9.302074E2,1.936881E2,7.365193E2,1.10933784E2,8.275432E1,1.0353461E2,7.3991766E0,6.7872154E1,1.4882163E1,6.3794983E1,3.973962E1,1.082396E0,6.3167806E0,3.5494774E1,3.237738E1,1.0567094E1,4.3150687E0],"tree_param":{"num_deleted":"0","num_feature":"58","num_nodes":"19","size_leaf_vector":"1"}},{"base_weights":[8.9274065E-5,-5.223588E-2,6.9932103E-1,-5.80344E-1,5.223353E-2,-9.0459657E-1,-2.7402234E-1,-9.151553E-1,-6.7637893E-3,-4.9200124E-1,-1.3822265E-1,-5.0169755E-2,-3.9140534E-2,-3.1028727E-2,1.1819819E-2,-1.3170756E-2,1.884442E-3],"categories":[],"categories_nodes":[],"categories_segments":[],"categories_sizes":[],"default_left":[0,0,0,0,0,0,0,0,0,0,0,0,0,0,0,0,0],"id":49,"left_children":[1,-1,3,5,-1,7,9,11,-1,13,15,-1,-1,-1,-1,-1,-1],"loss_changes":[1.095173E3,0E0,3.9748755E2,1.8772903E1,0E0,6.2833405E-1,2.8893871E0,2.7916718E-1,0E0,3.7016659E0,1.3962163E0,0E0,0E0,0E0,0E0,0E0,0E0],"parents":[2147483647,0,0,2,2,3,3,5,5,6,6,7,7,9,9,10,10],"right_children":[2,-1,4,6,-1,8,10,12,-1,14,16,-1,-1,-1,-1,-1,-1],"split_conditions":[-4.022955E-1,-5.223588E-2,-2.2675757E0,1.7100242E-1,5.223353E-2,1.4414618E1,6.8632954E-1,-7.1910805E-1,-6.7637893E-3,1E0,1E0,-5.0169755E-2,-3.9140534E-2,-3.1028727E-2,1.1819819E-2,-1.3170756E-2,1.884442E-3],"split_indices":[16,0,22,15,0,24,15,15,0,18,30,0,0,0,0,0,0],"split_type":[0,0,0,0,0,0,0,0,0,0,0,0,0,0,0,0,0],"sum_hessian":[1.4970828E3,6.0002246E2,8.970603E2,1.9049942E2,7.0656085E2,9.159243E1,9.890699E1,9.016537E1,1.427057E0,3.6959095E1,6.194789E1,5.014795E1,4.001742E1,3.1539856E1,5.419239E0,3.59007E1,2.6047192E1],"tree_param":{"num_deleted":"0","num_feature":"58","num_nodes":"17","size_leaf_vector":"1"}},{"base_weights":[8.178872E-4,-5.835852E-1,4.8923948E-1,-9.120485E-1,5.536415E-1,-3.6809546E-1,9.0866184E-1,-5.1392443E-2,-5.1099426E-1,-1.905196E-1,5.1673032E-2,-7.916327E-1,6.721861E-2,3.667323E-1,5.2012313E-2,-5.1537987E-2,5.0496615E-2,-5.0660618E-2,5.013714E-2,-4.8975605E-1,-5.153143E-2,-2.3671584E-1,5.0453324E-2,-5.0730098E-2,5.139947E-2,-2.8179858E-2,7.343718E-3,-2.7220545E-2,3.9728084E-3],"categories":[],"categories_nodes":[],"categories_segments":[],"categories_sizes":[],"default_left":[0,0,0,0,0,0,0,0,0,0,0,0,0,0,0,0,0,0,0,0,0,0,0,0,0,0,0,0,0],"id":50,"left_children":[1,3,5,7,9,11,13,-1,15,17,-1,19,21,23,-1,-1,-1,-1,-1,25,-1,27,-1,-1,-1,-1,-1,-1,-1],"loss_changes":[4.067457E2,2.4283989E2,2.794609E2,2.2869904E1,5.2331512E1,4.7199425E1,3.6808685E1,0E0,9.183463E1,5.80348E1,0E0,8.851868E0,3.660102E1,9.552344E1,0E0,0E0,0E0,0E0,0E0,2.8662472E0,0E0,9.464736E0,0E0,0E0,0E0,0E0,0E0,0E0,0E0],"parents":[2147483647,0,0,1,1,2,2,3,3,4,4,5,5,6,6,8,8,9,9,11,11,12,12,13,13,19,19,21,21],"right_children":[2,4,6,8,10,12,14,-1,16,18,-1,20,22,24,-1,-1,-1,-1,-1,26,-1,28,-1,-1,-1,-1,-1,-1,-1],"split_conditions":[-2.5062886E-1,7.5207305E-1,-3.802953E-1,3.7461692E-1,-1.1875873E0,6.8632954E-1,-2.8391893E-3,-5.1392443E-2,-7.1910805E-1,1.1295291E0,5.1673032E-2,-2.2675757E0,-7.577514E-1,2.1785034E-1,5.2012313E-2,-5.1537987E-2,5.0496615E-2,-5.0660618E-2,5.013714E-2,1E0,-5.153143E-2,1.1548088E0,5.0453324E-2,-5.0730098E-2,5.139947E-2,-2.8179858E-2,7.343718E-3,-2.7220545E-2,3.9728084E-3],"split_indices":[15,22,22,22,15,15,22,0,15,22,0,22,22,15,0,0,0,0,0,18,0,15,0,0,0,0,0,0,0],"split_type":[0,0,0,0,0,0,0,0,0,0,0,0,0,0,0,0,0,0,0,0,0,0,0,0,0,0,0,0,0],"sum_hessian":[1.4230022E3,6.477571E2,7.7524506E2,5.027474E2,1.4500969E2,2.5471281E2,5.205322E2,3.888951E2,1.138523E2,5.7082397E1,8.792729E1,1.2868788E2,1.2602493E2,1.02436264E2,4.1809598E2,8.5094246E1,2.8758053E1,3.3876907E1,2.3205488E1,5.8210796E1,7.047708E1,9.584455E1,3.0180384E1,3.2989155E1,6.944711E1,5.2263596E1,5.9472013E0,4.820759E1,4.7636963E1],"tree_param":{"num_deleted":"0","num_feature":"58","num_nodes":"29","size_leaf_vector":"1"}},{"base_weights":[-5.524817E-3,-5.2002024E-2,6.8470573E-1,-5.752347E-1,5.200089E-2,-9.163236E-1,-2.7238262E-1,-4.8385717E-2,-6.1719584E-1,-3.5561463E-1,-1.18023925E-1,-3.645898E-2,-8.2765747E-4,-3.0258967E-2,-1.114619E-2,-1.8953944E-2,4.7582625E-3],"categories":[],"categories_nodes":[],"categories_segments":[],"categories_sizes":[],"default_left":[0,0,0,0,0,0,0,0,0,0,0,0,0,0,0,0,0],"id":51,"left_children":[1,-1,3,5,-1,7,9,-1,11,13,15,-1,-1,-1,-1,-1,-1],"loss_changes":[9.748924E2,0E0,3.672045E2,1.8425262E1,0E0,7.032623E-1,1.2065854E0,0E0,1.0079279E0,1.9394398E0,2.0140936E0,0E0,0E0,0E0,0E0,0E0,0E0],"parents":[2147483647,0,0,2,2,3,3,5,5,6,6,8,8,9,9,10,10],"right_children":[2,-1,4,6,-1,8,10,-1,12,14,16,-1,-1,-1,-1,-1,-1],"split_conditions":[-4.022955E-1,-5.2002024E-2,-2.2675757E0,1.7100242E-1,5.200089E-2,-1.1008509E-1,1E0,-4.8385717E-2,1E0,6.8632954E-1,1E0,-3.645898E-2,-8.2765747E-4,-3.0258967E-2,-1.114619E-2,-1.8953944E-2,4.7582625E-3],"split_indices":[16,0,22,15,0,15,27,0,17,15,49,0,0,0,0,0,0],"split_type":[0,0,0,0,0,0,0,0,0,0,0,0,0,0,0,0,0],"sum_hessian":[1.3632943E3,5.453773E2,8.1791693E2,1.7978355E2,6.3813336E2,8.360139E1,9.618217E1,6.9436874E1,1.4164508E1,6.1640865E1,3.45413E1,1.1758295E1,2.4062128E0,2.0161097E1,4.147977E1,1.5177714E1,1.9363586E1],"tree_param":{"num_deleted":"0","num_feature":"58","num_nodes":"17","size_leaf_vector":"1"}}]},"name":"gbtree"},"learner_model_param":{"base_score":"4.9999344E-1","boost_from_average":"1","num_class":"0","num_feature":"58","num_target":"1"},"objective":{"name":"binary:logistic","reg_loss_param":{"scale_pos_weight":"0.641014397"}}},"version":[2,1,4]}